{"layers":[{"cell0":{},"cell1":{},"cell2":{},"cell3":{},"cell4":{},"cell5":{},"cell6":{},"cell7":{},"cell8":{}},{"0":{"bias":0.4643427136747759,"weights":{"cell0":-0.7402387910900705,"cell1":-1.0099022759154759,"cell2":-0.2781412682742053,"cell3":-0.6884888706775443,"cell4":-0.8328650119367552,"cell5":-0.6614097708084246,"cell6":-0.9209971557833458,"cell7":-0.7082641721984562,"cell8":-0.6864527297802289}},"1":{"bias":0.206315334582749,"weights":{"cell0":-0.6051903491593499,"cell1":-0.5281392963289606,"cell2":-0.4676391483357457,"cell3":-0.40636065262583215,"cell4":-0.8287405477897338,"cell5":-0.5642706592646917,"cell6":-0.5107309125920048,"cell7":-0.5681426638941672,"cell8":-0.491776142013411}},"2":{"bias":-2.1183101490730243,"weights":{"cell0":1.9718802387897616,"cell1":1.8869943311507578,"cell2":-1.0718829914771983,"cell3":0.12016330278855915,"cell4":0.41769123554159615,"cell5":-1.746496401162575,"cell6":2.321625321933379,"cell7":2.4078451081085412,"cell8":-1.6247070769422625}},"3":{"bias":-1.371624205831634,"weights":{"cell0":-3.4602883239097815,"cell1":0.30317037184718326,"cell2":1.719098285045782,"cell3":2.146743385679589,"cell4":-3.6101564215144717,"cell5":3.0440778331135956,"cell6":2.1509473940696067,"cell7":1.523795328786494,"cell8":-3.3641171433219172}},"4":{"bias":-1.8442977338632034,"weights":{"cell0":0.8039520906056338,"cell1":-1.9202252306522907,"cell2":0.7041598558077669,"cell3":1.8596785996454968,"cell4":0.731652856329977,"cell5":-1.4332564964113812,"cell6":-1.1275449502970154,"cell7":1.3428176549531319,"cell8":0.7065868235967768}},"5":{"bias":-2.12033482292562,"weights":{"cell0":2.8838025486608485,"cell1":-0.5356710796827566,"cell2":-1.3047070198528417,"cell3":1.9855000391250102,"cell4":-1.8182405768721686,"cell5":0.799078468851748,"cell6":-4.098474732132158,"cell7":0.9248415539333907,"cell8":1.7717440401316569}},"6":{"bias":-0.13825569737911478,"weights":{"cell0":-0.666015577204543,"cell1":-0.45522099765510515,"cell2":-0.40619957106912036,"cell3":-0.3975909765124466,"cell4":-0.5609588530760127,"cell5":-0.47157546741352563,"cell6":-0.45797760915005525,"cell7":-0.43990865355366476,"cell8":-0.4340978204255694}},"7":{"bias":0.6982533185009017,"weights":{"cell0":-0.9704073980869079,"cell1":-0.7325321835443024,"cell2":-0.5001628404118715,"cell3":-0.7937044478019308,"cell4":-0.7565289687660812,"cell5":-0.6447793496842131,"cell6":-0.8489063493491977,"cell7":-0.6411375944893294,"cell8":-0.5487388288092265}},"8":{"bias":-1.7513479959593803,"weights":{"cell0":-3.555519288639401,"cell1":-2.346434256127534,"cell2":-1.1525717029051685,"cell3":-0.4425132863973563,"cell4":0.771382043870883,"cell5":2.5882037847827295,"cell6":2.0627806168568212,"cell7":-0.25659852673803657,"cell8":0.8649317033882544}},"9":{"bias":-0.8032168408038525,"weights":{"cell0":-0.10623773792153125,"cell1":-0.5046636694503284,"cell2":-0.18324521716791836,"cell3":0.03496575007382968,"cell4":-0.4823378946594667,"cell5":-0.35092407064174574,"cell6":-0.2730110216338145,"cell7":-0.25147314430755624,"cell8":-0.16604657850032636}},"10":{"bias":0.10119509165427265,"weights":{"cell0":-0.717131435036573,"cell1":-0.654796331117279,"cell2":-0.4518546039428828,"cell3":-0.45940185255163535,"cell4":-0.7548267724450574,"cell5":-0.6103315979152495,"cell6":-0.5628642984352544,"cell7":-0.5255387481211894,"cell8":-0.5639594104403559}},"11":{"bias":-0.19353265790663787,"weights":{"cell0":-0.6939039785308497,"cell1":-1.465904836908561,"cell2":-0.16634822835525684,"cell3":-0.7240054360325952,"cell4":-0.6712963739359061,"cell5":-0.7832136194720398,"cell6":-1.1623365390676712,"cell7":-0.593998301706717,"cell8":-0.8171133432456187}},"12":{"bias":0.6143298814317394,"weights":{"cell0":-1.2326166051720129,"cell1":0.02648957308012037,"cell2":-0.5408003843616749,"cell3":-1.6851328024248022,"cell4":-0.27637750285017265,"cell5":-0.6092240545575811,"cell6":-1.107909098549381,"cell7":-1.1444649566741172,"cell8":-0.5073689018039003}},"13":{"bias":-2.6023700583887845,"weights":{"cell0":1.0851986270389102,"cell1":-6.223558576041684,"cell2":4.3980483095749365,"cell3":-2.997022617845588,"cell4":-2.1616432835398767,"cell5":0.9725820907781328,"cell6":-3.764517737861826,"cell7":-0.7828314954560608,"cell8":-7.111245256757692}},"14":{"bias":0.16400251871648477,"weights":{"cell0":-0.7803353028573482,"cell1":-0.4089284900490207,"cell2":-0.5834842583331882,"cell3":-0.602858010855991,"cell4":-0.47394515310567853,"cell5":-0.5496808336716886,"cell6":-0.567167215786243,"cell7":-0.4797259456290087,"cell8":-0.6021621548392337}},"15":{"bias":-2.847616913737628,"weights":{"cell0":0.3487567005817259,"cell1":1.77387205067551,"cell2":2.5865930749101014,"cell3":-0.5343382998612596,"cell4":1.528829523017495,"cell5":3.0256440999499534,"cell6":-1.681542289767906,"cell7":-0.08593578003657279,"cell8":-0.5382417840596465}},"16":{"bias":-0.7032831309441164,"weights":{"cell0":-0.43424494698687277,"cell1":-0.45273155697323614,"cell2":-0.29005777606682503,"cell3":-0.5758825410899944,"cell4":-0.33043802789350607,"cell5":-0.07467009437026884,"cell6":-0.06980201752679537,"cell7":-0.23876147001696868,"cell8":-0.21927674103869507}},"17":{"bias":-0.2553582287349274,"weights":{"cell0":-0.4572589561749283,"cell1":-0.34411348935347746,"cell2":-0.13082708659827288,"cell3":-0.33499618116512736,"cell4":-0.7316672418481913,"cell5":-0.3543141817128552,"cell6":-0.4518642111962993,"cell7":-0.4114348528026164,"cell8":-0.20655296456271466}},"18":{"bias":-3.042174676432396,"weights":{"cell0":2.4115454793013162,"cell1":0.27552241268079086,"cell2":-0.28649265023858395,"cell3":-1.8648820146664238,"cell4":0.20601347320052882,"cell5":0.8923031133739613,"cell6":2.0536926102907125,"cell7":0.7876177017682516,"cell8":-1.648181394398639}},"19":{"bias":0.061028122405696855,"weights":{"cell0":-0.4413113594310414,"cell1":-0.9258052731195157,"cell2":0.38277717333229044,"cell3":-0.1847278696544785,"cell4":-1.1605978734985292,"cell5":-0.3018322862667035,"cell6":-0.47127024257324,"cell7":-0.5158072810790574,"cell8":0.08952222101913415}},"20":{"bias":-0.21388671102681775,"weights":{"cell0":-0.4758642784308282,"cell1":-1.2275185176395769,"cell2":-0.0927290893213533,"cell3":-0.5923868276475094,"cell4":-0.7236559058649927,"cell5":-0.6261521404692314,"cell6":-0.8086232448471506,"cell7":-0.5433997176933916,"cell8":-0.8392468729629893}},"21":{"bias":-0.5322070566679109,"weights":{"cell0":0.0639714201339377,"cell1":-0.5590140254179238,"cell2":-0.11614413558661633,"cell3":-0.5735859195381084,"cell4":-0.5755435613346948,"cell5":-0.17596402101529135,"cell6":-0.3113188492788695,"cell7":-0.28609491447596985,"cell8":-0.27536075640139135}},"22":{"bias":-0.46313848807667984,"weights":{"cell0":-0.3009993187921712,"cell1":1.853838728640887,"cell2":-3.920685304960632,"cell3":-4.264338550543597,"cell4":-1.3900597043947045,"cell5":0.03710054949552548,"cell6":0.12588531389955282,"cell7":-3.2087521880824688,"cell8":-0.78155936196292}},"23":{"bias":0.4407862422091031,"weights":{"cell0":-0.9633889481429331,"cell1":-0.3451966031625272,"cell2":-0.7836040429839737,"cell3":-0.9273501966442916,"cell4":-0.45012059629872947,"cell5":-0.539264843644036,"cell6":-0.5919222206225503,"cell7":-0.65301731209595,"cell8":-0.649016594500412}},"24":{"bias":0.42306183855252777,"weights":{"cell0":-0.7113502369866702,"cell1":-1.0069905889629946,"cell2":-0.0011325265325325977,"cell3":-0.6389827321053904,"cell4":-1.0279115459548651,"cell5":-0.624421341493686,"cell6":-0.9138915898813678,"cell7":-0.7945256848253215,"cell8":-0.21446322296770862}},"25":{"bias":0.43719508948754576,"weights":{"cell0":-0.8482545001894721,"cell1":-0.436280065416469,"cell2":-0.5999504766276895,"cell3":-0.718071620671659,"cell4":-0.7137347270335342,"cell5":-0.5632964585069697,"cell6":-0.6106630736187503,"cell7":-0.6176180727576938,"cell8":-0.48816251228014057}},"26":{"bias":-1.4068515765814746,"weights":{"cell0":2.110886565015035,"cell1":-0.35788666634380195,"cell2":1.8626036426349755,"cell3":-3.016652685034282,"cell4":-3.7831366330994025,"cell5":-1.985321603043419,"cell6":2.695761908204792,"cell7":-0.527336120939082,"cell8":2.7187735042303736}},"27":{"bias":0.8751837374066515,"weights":{"cell0":-2.6132959160583202,"cell1":-1.3370947553818207,"cell2":-2.1307620104875182,"cell3":-0.4258803841816133,"cell4":-3.1041284777595086,"cell5":0.09894822074860966,"cell6":2.858120172937281,"cell7":3.4360314337023503,"cell8":2.6473858420525453}},"28":{"bias":-0.07844477694217042,"weights":{"cell0":-0.6758944175331115,"cell1":-1.3009549370906837,"cell2":-0.18059057788877614,"cell3":-0.7762707136455985,"cell4":-0.7431886226878482,"cell5":-0.6858869082781291,"cell6":-1.0884153386213038,"cell7":-0.6404424332787687,"cell8":-0.7913925666377688}},"29":{"bias":1.0541079427948907,"weights":{"cell0":4.412383868458298,"cell1":1.4817679928177283,"cell2":-1.7376251932461662,"cell3":5.334876591357871,"cell4":-5.413377207278615,"cell5":-2.8974880896079176,"cell6":4.191234142313843,"cell7":0.9043644194161282,"cell8":-2.8304626091678644}},"30":{"bias":-2.32842480011931,"weights":{"cell0":0.7349197016412017,"cell1":-0.13912681148742712,"cell2":0.125010907040254,"cell3":-0.6155567495647843,"cell4":0.9690578482367723,"cell5":1.3259415083610029,"cell6":0.4978156187274371,"cell7":0.3820963828188558,"cell8":0.09834874580744812}},"31":{"bias":0.5697796743618786,"weights":{"cell0":-0.509374493310446,"cell1":-1.4295598565366279,"cell2":0.33146501200655915,"cell3":-0.6127180907928869,"cell4":-1.1962080289630757,"cell5":-0.6773552030119904,"cell6":-0.9746905920920187,"cell7":-1.0748730402827715,"cell8":-0.022481357385749856}},"32":{"bias":-0.12948863936031071,"weights":{"cell0":-0.5978929754185477,"cell1":-0.46316173774431696,"cell2":-0.40057438099973247,"cell3":-0.4614896719273091,"cell4":-0.4652963357244248,"cell5":-0.4044258743905345,"cell6":-0.3304342102867055,"cell7":-0.3621162584608086,"cell8":-0.40823115683234407}},"33":{"bias":-2.7005888603723127,"weights":{"cell0":2.3644819901775147,"cell1":0.4027492690368796,"cell2":-5.519090269322729,"cell3":1.1207215731656357,"cell4":-1.5515427402165078,"cell5":3.779643250848336,"cell6":-1.2499597505287972,"cell7":-1.7522896224713427,"cell8":2.3658411974433955}},"34":{"bias":0.13224137651271126,"weights":{"cell0":-0.81224464591835,"cell1":-0.7745586698856808,"cell2":-0.21770373386896577,"cell3":-0.5085191209726093,"cell4":-0.6323965228817263,"cell5":-0.5389730872292288,"cell6":-0.7216927344854259,"cell7":-0.4698091127747196,"cell8":-0.4015780061406104}},"35":{"bias":1.1770136034816001,"weights":{"cell0":-0.5616781124260869,"cell1":0.12639728531716418,"cell2":-0.9186893560193492,"cell3":-1.7660043086604527,"cell4":-0.9313147003494856,"cell5":0.22512151190395593,"cell6":-0.9421770305142614,"cell7":-2.0709340657585065,"cell8":-0.031015257769239486}},"36":{"bias":0.7695754004286285,"weights":{"cell0":-0.6640760057291892,"cell1":-1.107595788897653,"cell2":0.21292427052989543,"cell3":-0.5648833308739235,"cell4":-1.6361898642788901,"cell5":-0.5394221506342909,"cell6":-0.7820024110818838,"cell7":-0.9488368055434181,"cell8":-0.011215337178827396}},"37":{"bias":1.056978073279613,"weights":{"cell0":-0.8434734602219607,"cell1":-0.6788017977052729,"cell2":-0.5837912886528717,"cell3":-0.64139145610897,"cell4":-0.8968095444268369,"cell5":-0.5633685700389374,"cell6":-0.8000525240028171,"cell7":-0.6270289208487229,"cell8":-0.6193551627669275}},"38":{"bias":0.324231761540455,"weights":{"cell0":-0.6329721577599308,"cell1":-0.7487580328030881,"cell2":-0.253193429640033,"cell3":-0.2830928539605665,"cell4":-0.8710611149105992,"cell5":-0.5219567514761922,"cell6":-0.5204506494359069,"cell7":-0.5643388200902476,"cell8":-0.28775516582820226}},"39":{"bias":-0.09316773900029707,"weights":{"cell0":-0.6169999511930875,"cell1":-0.5409302508975625,"cell2":-0.23827324974595826,"cell3":-0.38754005480550424,"cell4":-0.7062725491086765,"cell5":-0.4043071109719008,"cell6":-0.41922605232560983,"cell7":-0.5010362903153404,"cell8":-0.3614231086670682}},"40":{"bias":0.5195737998150802,"weights":{"cell0":-0.8201519871100228,"cell1":-0.6673324720302675,"cell2":-0.37103580215862025,"cell3":-0.6857020021684217,"cell4":-0.721914804297824,"cell5":-0.5676628293027173,"cell6":-0.7420490772085794,"cell7":-0.5119975546702681,"cell8":-0.4603535941950671}},"41":{"bias":0.35433293266509136,"weights":{"cell0":-0.7590568842249716,"cell1":-0.6059407665964068,"cell2":-0.31595313262664226,"cell3":-0.5782204549296007,"cell4":-0.9345032935149348,"cell5":-0.5698353969370539,"cell6":-0.748917086989001,"cell7":-0.6116081375357527,"cell8":-0.3965229183061129}},"42":{"bias":0.959928145164716,"weights":{"cell0":-0.8769134615919113,"cell1":-0.38202457681482727,"cell2":-0.8163888698271753,"cell3":-0.9555355497748274,"cell4":-0.7655430415439528,"cell5":-0.5527989571051329,"cell6":-0.7918912856234536,"cell7":-0.6464204550814824,"cell8":-0.6617323152935716}},"43":{"bias":-1.462844493865041,"weights":{"cell0":3.1492975014064797,"cell1":5.555058884604998,"cell2":0.14574088035927202,"cell3":1.3193256752732214,"cell4":1.975953210696642,"cell5":-0.40598463665580675,"cell6":2.3008125310255036,"cell7":-5.853948840899452,"cell8":-0.20981014911507467}},"44":{"bias":-0.15064800078327806,"weights":{"cell0":-0.7552275923784928,"cell1":-0.5017865333710475,"cell2":-0.5260139944623616,"cell3":-0.45751573393588735,"cell4":-0.41216984980599186,"cell5":-0.561205206577416,"cell6":-0.4333159184114882,"cell7":-0.43614313589495535,"cell8":-0.5697970804711694}},"45":{"bias":-1.9436217174400405,"weights":{"cell0":0.9848667078319786,"cell1":4.0653026372577585,"cell2":-2.077649080963386,"cell3":0.8347361276388229,"cell4":-2.3023461598576245,"cell5":1.4119209572385814,"cell6":-2.8566952057608592,"cell7":2.2450898345994195,"cell8":2.0530229697848146}},"46":{"bias":0.763803489975151,"weights":{"cell0":-1.0618680841617965,"cell1":-0.5190954522007082,"cell2":-0.5034599080762645,"cell3":-0.9091754943767926,"cell4":-0.47460054783558453,"cell5":-0.6094648220197284,"cell6":-0.9319440141605471,"cell7":-0.5942160497176402,"cell8":-0.6555387980905223}},"47":{"bias":-0.320153364093673,"weights":{"cell0":-0.48969374230462276,"cell1":-0.5619685886936464,"cell2":-0.190029430512033,"cell3":-0.3917644899423889,"cell4":-0.6276163282405586,"cell5":-0.289000324303357,"cell6":-0.4013445215660801,"cell7":-0.3805254284990018,"cell8":-0.2808780669615304}},"48":{"bias":0.2560645738128196,"weights":{"cell0":-0.6194463423398556,"cell1":-1.0688934585038394,"cell2":0.06528210391800308,"cell3":-0.6041818851904739,"cell4":-1.066004921732755,"cell5":-0.5174581111140797,"cell6":-0.6885983519187197,"cell7":-0.6893953127920309,"cell8":-0.23479086479099695}},"49":{"bias":-1.0180343436323243,"weights":{"cell0":1.7070355950994813,"cell1":-8.068690762484385,"cell2":2.244595506580845,"cell3":1.6620991146949942,"cell4":-0.8638833028918286,"cell5":-0.8930441065996081,"cell6":-2.0027673462345836,"cell7":0.9646020793445327,"cell8":-0.17857766761188892}},"50":{"bias":0.04761126432333602,"weights":{"cell0":-0.624547689491063,"cell1":-0.6140354428226321,"cell2":-0.33701319698997156,"cell3":-0.43704043030770956,"cell4":-0.7689928498048868,"cell5":-0.4467083749095321,"cell6":-0.515219714518515,"cell7":-0.45926454745818296,"cell8":-0.33792089999667907}},"51":{"bias":0.7119181318162253,"weights":{"cell0":-0.8694269844317903,"cell1":-0.20825895878789694,"cell2":-0.816383764715669,"cell3":-1.1518630167004866,"cell4":-0.6588388149552142,"cell5":-0.40770962682125966,"cell6":-0.7555774177234301,"cell7":-0.73039458099341,"cell8":-0.4998290457677853}},"52":{"bias":-1.0271054845090337,"weights":{"cell0":-1.1616186635284211,"cell1":2.2137410242087903,"cell2":3.2321665026642354,"cell3":-3.161300397810861,"cell4":-1.8570920649038467,"cell5":-2.482571868047019,"cell6":1.4222897809468145,"cell7":4.353937074874036,"cell8":0.06408258787138155}},"53":{"bias":0.9818790283248177,"weights":{"cell0":-1.038591832410894,"cell1":0.6746343630956113,"cell2":-2.727561355171961,"cell3":-1.5458754547514215,"cell4":1.1575204707454478,"cell5":-0.0803999621780803,"cell6":0.6028325981052032,"cell7":-1.2319092250341532,"cell8":-0.9961245374355194}},"54":{"bias":-1.1360350098170473,"weights":{"cell0":0.11597951328385787,"cell1":-1.7092363059997662,"cell2":-1.0223639437243244,"cell3":-1.4055549572182668,"cell4":0.12334482920764187,"cell5":-3.1893044592706294,"cell6":3.3807894437784745,"cell7":-0.3877103985349461,"cell8":1.5809785738703646}},"55":{"bias":2.4574355079928067,"weights":{"cell0":-4.45288932528792,"cell1":2.0624043104190415,"cell2":-2.2428094789877786,"cell3":0.31482854852650904,"cell4":1.5043879779196734,"cell5":1.1392091976122793,"cell6":-2.5092106402859438,"cell7":-0.03798331795137351,"cell8":0.109521203647052}},"56":{"bias":-2.6816850688805296,"weights":{"cell0":-4.8265633419969145,"cell1":3.4016466968053862,"cell2":1.1753887105646454,"cell3":1.69339504885418,"cell4":4.621966633144809,"cell5":1.0386262597024012,"cell6":-2.767290926289209,"cell7":-2.5283866493579166,"cell8":2.5764479106732496}},"57":{"bias":0.21266014107709585,"weights":{"cell0":-0.7531207943047128,"cell1":-0.45687932449071766,"cell2":-0.7310786014067994,"cell3":-0.5447997674549653,"cell4":-0.47080407654887796,"cell5":-0.5740234251658314,"cell6":-0.5069031586894277,"cell7":-0.3825414152483216,"cell8":-0.6876166533268984}},"58":{"bias":-1.2987549775418106,"weights":{"cell0":-0.25082985635420485,"cell1":-3.3278007192811923,"cell2":2.2547335695268815,"cell3":-0.5716962497409562,"cell4":-0.44417781694194786,"cell5":-3.1223183745181466,"cell6":-6.073040495798842,"cell7":0.2820126816994081,"cell8":0.5262396644624517}},"59":{"bias":-2.0033226975816234,"weights":{"cell0":-0.4201689204656086,"cell1":-0.2572969247056045,"cell2":3.3718510554222356,"cell3":-0.5981872608858663,"cell4":2.461787925547082,"cell5":-1.0946411945383185,"cell6":-0.45688388241421507,"cell7":-4.0371944751734015,"cell8":-1.328102793274265}},"60":{"bias":-1.5836683486884304,"weights":{"cell0":0.16721649136045055,"cell1":-3.148971910451937,"cell2":1.7730762126180672,"cell3":1.2498856353803953,"cell4":-0.19827876910020814,"cell5":-2.925563652042084,"cell6":-4.839228394649285,"cell7":-0.6815414690450216,"cell8":-2.564283114804966}},"61":{"bias":-2.529126430811275,"weights":{"cell0":-1.2226412708656653,"cell1":1.9120118816495286,"cell2":2.1484861178062937,"cell3":-0.04802961482610049,"cell4":0.6441706592031843,"cell5":0.508364725946547,"cell6":-0.04758894037969306,"cell7":-0.47588944409115463,"cell8":2.0762590088344095}},"62":{"bias":-2.058104452270915,"weights":{"cell0":0.8546770388051548,"cell1":0.7615110827568997,"cell2":-0.23661667895748875,"cell3":0.6686973583877711,"cell4":0.5773587926234918,"cell5":0.2432508254593683,"cell6":1.3719704262671468,"cell7":0.16872547148351943,"cell8":0.7779546978810262}},"63":{"bias":-3.131456951936211,"weights":{"cell0":0.8470138030685851,"cell1":0.786141995261212,"cell2":-1.2201563778608038,"cell3":-1.7905090023184835,"cell4":1.633330602431551,"cell5":2.794592078207789,"cell6":2.7015713823249867,"cell7":-1.0051910421087173,"cell8":-1.020805906473001}},"64":{"bias":0.3231725193217876,"weights":{"cell0":-0.9708037116282503,"cell1":-0.8455771448539458,"cell2":-0.26350994351543344,"cell3":-0.7726234300999428,"cell4":-0.6631460074335708,"cell5":-0.6828979229502211,"cell6":-1.0230220009450042,"cell7":-0.4962719030315997,"cell8":-0.47267511782460325}},"65":{"bias":-1.0899024135580975,"weights":{"cell0":0.38844665296462455,"cell1":-0.36524943483123296,"cell2":1.5276626337118382,"cell3":2.0954803251063625,"cell4":-2.4678454714076246,"cell5":2.958483452169153,"cell6":1.1116881772933875,"cell7":-4.754041122376092,"cell8":0.11299390155510228}},"66":{"bias":-1.7612714767334012,"weights":{"cell0":-5.869072180164209,"cell1":2.2252826079009025,"cell2":0.7793427349099262,"cell3":1.2013218476929062,"cell4":-1.9155251124764199,"cell5":-4.9802591270902905,"cell6":-0.043840251387636024,"cell7":-5.3024519840683,"cell8":0.3091324640695969}},"67":{"bias":0.9083603492603856,"weights":{"cell0":-0.5692710058958144,"cell1":-1.4061899637689705,"cell2":0.17283266117492896,"cell3":-0.4055541613715115,"cell4":-1.666912676469322,"cell5":-0.6054632920519473,"cell6":-0.8097047149473413,"cell7":-1.2913046402876527,"cell8":0.08624729565577967}},"68":{"bias":0.36449426997779283,"weights":{"cell0":-1.0034850000063387,"cell1":-0.5234193117641435,"cell2":-0.5460921035536597,"cell3":-0.856342528282915,"cell4":-0.4820807514624101,"cell5":-0.620336750398254,"cell6":-0.7403815032893947,"cell7":-0.6170209601717289,"cell8":-0.4947259588563697}},"69":{"bias":0.5427225100646278,"weights":{"cell0":-0.9116055904003347,"cell1":-0.49718380301111414,"cell2":-0.8273608071890155,"cell3":-0.6398713282590962,"cell4":-0.6084001636790155,"cell5":-0.7300123969992693,"cell6":-0.5593815934586285,"cell7":-0.4489464965329742,"cell8":-0.8184982532290367}},"70":{"bias":0.48068773780107815,"weights":{"cell0":-0.8843351051079636,"cell1":-0.362057741830402,"cell2":-0.6931917716125264,"cell3":-0.8316812349616441,"cell4":-0.5736740424920459,"cell5":-0.48686867050054666,"cell6":-0.6188693520684648,"cell7":-0.6116801305167426,"cell8":-0.516333156083466}},"71":{"bias":-2.381773709416075,"weights":{"cell0":-1.435088163296513,"cell1":-0.7350017802665899,"cell2":-2.805131113437075,"cell3":2.2253544885359564,"cell4":-0.833914870790898,"cell5":0.450652237797795,"cell6":2.4029764670281004,"cell7":0.42989647651811813,"cell8":3.5825453127724702}},"72":{"bias":-0.7975981037559676,"weights":{"cell0":-0.04193555768700419,"cell1":-0.2126139910478575,"cell2":0.23946050203277316,"cell3":-0.7856153204474594,"cell4":-0.4726033390802645,"cell5":-0.14734409741085544,"cell6":-0.2212967776635751,"cell7":-0.30701321934138764,"cell8":-0.2545865743136026}},"73":{"bias":0.7698765846089015,"weights":{"cell0":-0.680901680559314,"cell1":-0.1038471127335213,"cell2":-0.5405285302907148,"cell3":-1.1090203399412537,"cell4":-0.9246475377657786,"cell5":-0.35595861777652255,"cell6":-0.8737341125808116,"cell7":-0.9880903252281047,"cell8":-0.3845301712167239}},"74":{"bias":-0.1981730659635081,"weights":{"cell0":-0.649390325162543,"cell1":-1.182535011671481,"cell2":-0.1326983108037365,"cell3":-0.6050741984990229,"cell4":-0.7402836357711521,"cell5":-0.6113113627908773,"cell6":-0.8234273582914472,"cell7":-0.5301967498061393,"cell8":-0.5793979205043774}},"75":{"bias":-0.44967082339403214,"weights":{"cell0":0.05210453974479066,"cell1":-2.3553745417486858,"cell2":0.8736868342280788,"cell3":-1.1425316116332624,"cell4":-0.8751122301956031,"cell5":-0.39571577532328017,"cell6":-2.2873461529995693,"cell7":-1.14053272967484,"cell8":-1.6220674355779332}},"76":{"bias":0.5895689640305862,"weights":{"cell0":-0.5827406968265967,"cell1":-0.27016613895939,"cell2":-0.7206237091501577,"cell3":-0.8837231372545351,"cell4":-1.0302652324496189,"cell5":-0.4521568735216761,"cell6":-0.7367188465614055,"cell7":-0.8819546182499391,"cell8":-0.4447889458419168}},"77":{"bias":0.6746717024158257,"weights":{"cell0":-0.69589672462115,"cell1":-0.449650393117141,"cell2":-0.580264514620662,"cell3":-0.9121465326334527,"cell4":-0.9558152498758805,"cell5":-0.4540907752971334,"cell6":-0.8196972770739044,"cell7":-0.8586082813754363,"cell8":-0.4059742663327834}},"78":{"bias":-0.27835713414721924,"weights":{"cell0":-0.5891426134032349,"cell1":-0.8099324197511374,"cell2":0.24179220911078905,"cell3":-0.27354518410391643,"cell4":-0.8193557761358653,"cell5":-0.3328724434980205,"cell6":-0.295049392002651,"cell7":-0.20336265361184486,"cell8":-0.04532236982431823}},"79":{"bias":0.31383147747991835,"weights":{"cell0":-0.9078190291851119,"cell1":-0.42382918945739967,"cell2":-0.5965985462462231,"cell3":-0.7782480573046159,"cell4":-0.5693727809106491,"cell5":-0.5375015552364077,"cell6":-0.6623383466007676,"cell7":-0.6113409368864722,"cell8":-0.5555109176616857}},"80":{"bias":-0.20212724971335086,"weights":{"cell0":-2.552720639148403,"cell1":0.12027258474657233,"cell2":0.28374782583286784,"cell3":-0.7640297753812728,"cell4":-1.028303113039686,"cell5":-1.7057909213123872,"cell6":-0.9598884514105084,"cell7":-2.1963043939968445,"cell8":0.1684238249030792}},"81":{"bias":-0.42848910839516197,"weights":{"cell0":-0.04394743680760367,"cell1":-0.5905801447775023,"cell2":0.3315951840779263,"cell3":-0.44805935140811326,"cell4":-0.7945384721780117,"cell5":-0.28418257177187406,"cell6":-0.4146629962348094,"cell7":-0.46909360928750643,"cell8":-0.039509858793293176}},"82":{"bias":-1.1076352040563318,"weights":{"cell0":-1.0054493319893092,"cell1":-0.5035804013176395,"cell2":0.6675532254706067,"cell3":-1.050477214112878,"cell4":0.16901000810761754,"cell5":-0.08955081327578802,"cell6":0.43540048887244365,"cell7":0.014348558867787489,"cell8":0.40945157015863676}},"83":{"bias":0.10602865143737988,"weights":{"cell0":-0.7020436129602682,"cell1":-0.5481557145484806,"cell2":-0.39467120178202547,"cell3":-0.572156620891099,"cell4":-0.6274905077100182,"cell5":-0.45941341995066065,"cell6":-0.5881857674267227,"cell7":-0.4282048641177494,"cell8":-0.43948891631162973}},"84":{"bias":0.7118568894459217,"weights":{"cell0":-0.831869901504806,"cell1":-0.5790170971467015,"cell2":-0.6338102672247353,"cell3":-0.623393194115607,"cell4":-0.7504955894312841,"cell5":-0.6702930448914335,"cell6":-0.6783805292532921,"cell7":-0.54670227657504,"cell8":-0.6927809463567132}},"85":{"bias":-0.043792020796853,"weights":{"cell0":-2.6295136369138024,"cell1":-0.7587576838841141,"cell2":-0.46806684502401597,"cell3":2.448530438727391,"cell4":1.4028466934567723,"cell5":-1.003671976437007,"cell6":1.2100319250151923,"cell7":0.8418638900545914,"cell8":3.714446402981354}},"86":{"bias":-1.6418216140463713,"weights":{"cell0":-3.2524363035290254,"cell1":1.4206418892705928,"cell2":0.3175257192010205,"cell3":1.6317129975449285,"cell4":0.017845980717193226,"cell5":-3.1893960083326656,"cell6":-1.5895872899592765,"cell7":-1.2414944374796288,"cell8":4.142894838366772}},"87":{"bias":-1.82205211502191,"weights":{"cell0":0.8527069156082032,"cell1":1.0370251131899515,"cell2":-0.7443122458173486,"cell3":-0.03096218505154937,"cell4":0.7834949400324195,"cell5":0.7180515058840194,"cell6":0.9022669989012776,"cell7":0.27284355902532487,"cell8":0.6862473338861118}},"88":{"bias":-1.0533583342215342,"weights":{"cell0":-0.18454306360699305,"cell1":1.34828857741483,"cell2":1.5178236868708659,"cell3":-1.1266774223128126,"cell4":-0.2824653857321879,"cell5":-1.4549256019765042,"cell6":0.0392477907867925,"cell7":0.040227416990693966,"cell8":-0.3335807649080112}},"89":{"bias":0.07781604856506885,"weights":{"cell0":-1.4590194984548222,"cell1":0.3637010793360552,"cell2":4.316084105881459,"cell3":-2.705079534453084,"cell4":-4.270598228394212,"cell5":5.432570215998249,"cell6":-1.7261531303414905,"cell7":0.31353768147154537,"cell8":5.1323531873476815}},"90":{"bias":0.29965952290079084,"weights":{"cell0":-0.591273184941069,"cell1":-0.8732501790841573,"cell2":-0.11918669722589731,"cell3":-0.23697487407785578,"cell4":-0.9105336231829682,"cell5":-0.5234421461656313,"cell6":-0.4753335921865191,"cell7":-0.4421023593161075,"cell8":-0.2674629800913504}},"91":{"bias":0.7872581686705468,"weights":{"cell0":-0.7899616526769835,"cell1":-0.4470638902309303,"cell2":-0.7898432300525495,"cell3":-0.8174742538805982,"cell4":-0.7954586028632336,"cell5":-0.5309569915214739,"cell6":-0.6528556814223345,"cell7":-0.7171023828155496,"cell8":-0.6215757068629436}},"92":{"bias":-1.4886719065247016,"weights":{"cell0":-0.48472110132249935,"cell1":-0.40170528711297276,"cell2":0.14417820352993183,"cell3":-4.949218206895439,"cell4":2.714034522952892,"cell5":1.8920698359124468,"cell6":-0.9033411288580818,"cell7":0.9841186786745671,"cell8":-1.2916434128012704}},"93":{"bias":0.10944634477584302,"weights":{"cell0":-0.805988914548846,"cell1":-0.5112628098052299,"cell2":-0.4967801021539619,"cell3":-0.5583467832720841,"cell4":-0.4594785366213324,"cell5":-0.5887217866570567,"cell6":-0.3471235712542775,"cell7":-0.47994020333210297,"cell8":-0.6747913388646755}},"94":{"bias":-1.7482641208635072,"weights":{"cell0":-1.1558871630991971,"cell1":-1.0549763710148785,"cell2":-0.11766236085856832,"cell3":-0.30104543786022253,"cell4":1.6962535843395719,"cell5":0.8976995054817835,"cell6":-0.45422050060251984,"cell7":1.4250145874861477,"cell8":1.7554278524862517}},"95":{"bias":0.012642462543860918,"weights":{"cell0":-0.796213291352669,"cell1":-0.3295522355732353,"cell2":-0.6830160528219651,"cell3":-0.6715923715506839,"cell4":-0.47111870278999457,"cell5":-0.5366107221679982,"cell6":-0.42772040491946345,"cell7":-0.46038520387208703,"cell8":-0.5747005767435727}},"96":{"bias":-0.4051174599672398,"weights":{"cell0":-0.5748885237892248,"cell1":-0.5852763094689704,"cell2":0.10856682668063336,"cell3":-0.3755748044647939,"cell4":-0.6260706916869645,"cell5":-0.2567330397729167,"cell6":-0.40432297415638657,"cell7":-0.25296118672140566,"cell8":0.0020272567722020448}},"97":{"bias":-0.5412969971136016,"weights":{"cell0":-0.32289052909887406,"cell1":-0.465451324906545,"cell2":-0.46176363454555264,"cell3":-0.0512307250137628,"cell4":-0.5913351534591672,"cell5":-0.29345650827162006,"cell6":-0.22823948568786503,"cell7":-0.2540411500177896,"cell8":-0.18539074249253173}},"98":{"bias":0.3599731926010211,"weights":{"cell0":-1.0884742483897558,"cell1":0.1564245607270239,"cell2":-1.5796336554458492,"cell3":-1.6890524351151384,"cell4":0.010148698154512031,"cell5":0.2722829950200547,"cell6":-0.0961833486718881,"cell7":-1.6810508325783993,"cell8":-0.029932730228405546}},"99":{"bias":-1.1773261373016595,"weights":{"cell0":-4.444485805800245,"cell1":-1.487738003566278,"cell2":-1.8529989858561629,"cell3":-0.27273565461531046,"cell4":-0.9213784220701816,"cell5":-2.1521205363346776,"cell6":-1.4571696455948695,"cell7":9.194865690764198,"cell8":-0.03580823149865064}}},{"0":{"bias":-0.464669636065715,"weights":{"0":0.2421656878403999,"1":0.1877235386004677,"2":-0.2655473494120376,"3":-0.9105696864753869,"4":-0.63137554835216,"5":-0.5460277612571451,"6":0.17796731872757635,"7":-0.024600371092985244,"8":0.9125292351231851,"9":-0.14339211035112592,"10":0.29209305228091775,"11":0.2906375444460939,"12":0.2846110963443398,"13":1.4329964093852432,"14":0.2834197708371933,"15":-0.4928759830685722,"16":-0.10455703651105416,"17":-0.09188976958652753,"18":-0.4118267547673202,"19":-0.04363534315573422,"20":0.3427120158024694,"21":-0.07317687282820166,"22":0.4375762073916706,"23":0.15119220062842456,"24":0.022094304557660586,"25":0.20080802305468495,"26":-1.332277341981968,"27":0.9537184610901176,"28":0.24404862586871828,"29":1.9533954691401563,"30":0.01834308259161548,"31":0.2647883426306516,"32":-0.10938808451852126,"33":-0.15943044986186888,"34":0.27698100760497696,"35":0.4100365586517973,"36":0.1849094314065638,"37":0.3583418827158728,"38":0.023078559271300658,"39":0.1507203715777477,"40":-0.026943647237717003,"41":0.285886912625129,"42":0.29698805912404047,"43":-1.1714180861703871,"44":0.07782929235196656,"45":-0.2734962866090027,"46":0.1869618077590678,"47":-0.13328396588079955,"48":0.09364619692810491,"49":-0.6911900538033386,"50":0.002612123476544226,"51":0.07464625740404142,"52":-0.5566262811122629,"53":0.20778900734486053,"54":-0.5172459601420707,"55":0.25929592198431783,"56":-1.285063435410433,"57":0.14978481261502277,"58":0.9439636334264508,"59":-0.5080996413478792,"60":1.4324491266238424,"61":-0.6143624878248971,"62":-0.20509538163678157,"63":-0.40211796819599815,"64":0.06312207643080285,"65":-1.0814053189596435,"66":1.0088652799381859,"67":0.06549781151755614,"68":0.04569668881089753,"69":0.3930614609318877,"70":0.03399558657502885,"71":-0.745217059452945,"72":-0.29949520431943083,"73":0.23389759582615496,"74":0.02229820626145403,"75":0.5393807204953374,"76":0.16135183309149176,"77":0.15895209654390233,"78":-0.23269777979073245,"79":0.2290168117178368,"80":0.32942748361432367,"81":-0.048565524705017175,"82":-0.14733183017000703,"83":0.12562125760963314,"84":0.07153809988629056,"85":-0.08052669888841443,"86":-0.6572933200479437,"87":-0.5697415461854187,"88":-0.601524838062979,"89":-0.8402980859884139,"90":-0.12535925581471835,"91":0.14470302471262064,"92":0.643040098720405,"93":0.24605796926245233,"94":0.10548701396778237,"95":0.27127732433111035,"96":-0.2330939608183215,"97":-0.0995784706356631,"98":-0.09585690468050935,"99":-0.6523200405811783}},"1":{"bias":-0.36008477068890826,"weights":{"0":-0.0519971621470716,"1":-0.03243678631011203,"2":-0.4756816112835579,"3":-0.0722830965573454,"4":-0.5168609466836753,"5":-0.0703526549888351,"6":-0.10776427628874738,"7":0.09164967085077962,"8":0.3285171648473921,"9":0.09991843893019998,"10":0.1907217971841914,"11":0.08399723529586091,"12":0.09842257687262079,"13":1.1081363096354266,"14":0.1441593831381318,"15":-0.3564038175051437,"16":0.158816277003662,"17":-0.17529605188949723,"18":-0.4677810715174971,"19":0.12174935240376696,"20":0.28585405908658135,"21":0.08657667667146647,"22":0.6620086188720324,"23":0.01852382014414067,"24":0.15843465875050414,"25":-0.041680909891640625,"26":-0.34252371175546703,"27":-0.13784591970685267,"28":0.2934471118063611,"29":0.6279310991671977,"30":-0.16951256704292228,"31":0.214524497206058,"32":0.18607068022498013,"33":-0.1504368750470886,"34":0.16056493999468158,"35":0.3167549299979516,"36":0.016101424021845362,"37":0.12371523200985148,"38":0.0862458622680204,"39":0.15669482184861153,"40":-0.1358130103277942,"41":-0.09298045909690575,"42":0.0973548531748292,"43":-0.26649022436710584,"44":-0.15140793378462442,"45":-0.05788068037694321,"46":-0.059075277486924344,"47":-0.09953123807184375,"48":0.010343435316925224,"49":-0.02464101397832302,"50":0.20027315582587188,"51":-0.07952010402770408,"52":-0.3775285869603105,"53":0.24825147619089033,"54":0.09285986848784226,"55":0.18597753485202584,"56":-0.29137147249613193,"57":-0.08565619317620944,"58":0.5996976882568049,"59":0.09580279553257598,"60":0.7261216115716264,"61":-0.3991718351510836,"62":-0.11959447363959891,"63":-0.2925877042834294,"64":0.22513122118624082,"65":-0.2282815059095549,"66":0.5116448421698017,"67":0.05017091236631004,"68":-0.14363410418811765,"69":-0.09064194670830755,"70":0.04416660218231375,"71":-0.044333508883190924,"72":-0.03354290632567304,"73":-0.028247118902215686,"74":-0.033044705722828534,"75":0.27762199770618196,"76":0.2899204823633283,"77":0.2661450755189747,"78":-0.19327086931882934,"79":0.010752857180873973,"80":0.3949714752132917,"81":-0.16909559821904424,"82":0.03363488426831827,"83":0.14810737263070506,"84":0.1890336819250214,"85":-0.03541898321624374,"86":-0.09871203511942046,"87":-0.2849295105843189,"88":-0.22445884995260076,"89":-0.12598723069159254,"90":0.1565581591503413,"91":-0.00572171277340667,"92":-0.07350709792257569,"93":0.07639089892743518,"94":-0.3750571229968807,"95":0.042939988633023896,"96":-0.13459942265488356,"97":-0.20618471614319006,"98":0.15683212998415255,"99":-0.1364336879325154}},"2":{"bias":-0.0325994005713464,"weights":{"0":0.2966834190644517,"1":-0.02622928206672583,"2":-0.18621077369155195,"3":-0.40966865964809657,"4":-0.14391468797059057,"5":-0.4247479808025434,"6":-0.018035230453006663,"7":-0.05667168528283952,"8":-0.40868749755137396,"9":-0.12495640216213696,"10":0.23208717994333503,"11":0.05672263348324672,"12":-0.021441451049581253,"13":0.2317837696291156,"14":0.04373238996160327,"15":-0.024269804024516395,"16":0.02352464929271759,"17":0.1893481417365125,"18":-0.052311462559408946,"19":0.1085626657989475,"20":-0.028080380332969373,"21":0.010686818242060848,"22":-0.04584682459334435,"23":0.21216369056141396,"24":0.11659293228487226,"25":-0.10535844567224334,"26":-0.4155824468675983,"27":0.23006795749576528,"28":0.10694092588048838,"29":0.5024891152809978,"30":-0.14128222900149,"31":0.22300224618007392,"32":-0.012063319677956272,"33":-0.658652203592666,"34":-0.11264835375323287,"35":0.2632345909835293,"36":0.06962919053159979,"37":0.2222354921219498,"38":0.04878375788400091,"39":-0.15505106675856042,"40":0.21996081453284008,"41":-0.08096547974583185,"42":0.1864660934799406,"43":-0.5123566480666717,"44":-0.03764876890759085,"45":-0.16204524345831248,"46":0.1738636111863921,"47":0.039214334278868154,"48":0.09547716481488301,"49":-0.3190656978349742,"50":0.12497320331912469,"51":0.2282155507218456,"52":-0.5362132143361986,"53":0.1500415458110499,"54":-0.1869155037936382,"55":0.13465641427605685,"56":-0.21831163196791684,"57":0.04532440105282273,"58":0.1123053850596602,"59":-0.440075144316943,"60":0.25950107280042034,"61":-0.21727566811328194,"62":-0.3911265403304736,"63":-0.08861641751542111,"64":-0.08180922403177282,"65":-0.1521061807470263,"66":0.2386394732121456,"67":0.07514522016091113,"68":-0.1294814340312211,"69":0.24030162989478093,"70":-0.03849420277321726,"71":-0.09716654070656547,"72":-0.18099179537712212,"73":0.09930435004144084,"74":0.07424561001939212,"75":-0.003270205089597397,"76":0.1806499108094041,"77":0.0331800241910589,"78":0.10987030983063503,"79":-0.09705820747313688,"80":0.3105290656127879,"81":-0.1360143272053193,"82":0.05173416483196978,"83":-0.1125377208071622,"84":-0.05501981011606803,"85":0.07663092397568526,"86":-0.33748442574959375,"87":-0.3276205078749023,"88":0.010983033606202851,"89":0.10802639347754134,"90":0.10204265292334837,"91":0.057334812190512396,"92":-0.09803726965516911,"93":0.0654059701035924,"94":-0.025723727370994213,"95":0.08992542125955286,"96":-0.18774630410089296,"97":-0.16374652917075813,"98":0.19195707431650375,"99":-0.35870134395606423}},"3":{"bias":-0.10601872294318894,"weights":{"0":0.28368327673088767,"1":-0.0023825426495289836,"2":-0.2513271600905531,"3":-0.39097245909028794,"4":-0.43954122827877234,"5":-0.24856842231283052,"6":0.10603361516319484,"7":-0.07620138576532588,"8":-0.2912188564209414,"9":-0.05629606597974584,"10":0.09704455275172946,"11":0.1941514573408046,"12":-0.039045963310590646,"13":0.8163614072793117,"14":0.2233709277420352,"15":-0.25968026576866443,"16":-0.1185562464369904,"17":0.030619979265185313,"18":-0.1636814551662571,"19":0.1954786348946074,"20":0.03171730551165382,"21":0.08439068513518351,"22":0.24793316670602264,"23":-0.03614261388485217,"24":-0.06866847471568029,"25":-0.07416857219935785,"26":-0.20555816058215684,"27":0.125512888349005,"28":0.20158345422123053,"29":0.3893272930338876,"30":-0.205983110154785,"31":-0.07535157388440261,"32":-0.08022343087765486,"33":-0.4080838127314716,"34":-0.019882822230095274,"35":0.2242241877787756,"36":-0.02309632150830257,"37":0.22223859816313582,"38":-0.06884360430106463,"39":0.01983518543140963,"40":0.2887831615736634,"41":0.207250415970392,"42":0.14506669537432448,"43":-0.5271236742956628,"44":0.1848605502411548,"45":-0.22167867410841202,"46":0.22314267778963157,"47":0.17452611320851905,"48":-0.0787148937636164,"49":-0.5721065494790554,"50":-0.1086023695734911,"51":0.2883034242944999,"52":-0.21871998748922983,"53":0.3416349463199312,"54":-0.05191573074080762,"55":0.3244237702769578,"56":-0.20602567960151974,"57":0.20281364220594422,"58":0.2384263954883566,"59":-0.31371733855620726,"60":0.40522408781910346,"61":-0.416117983141229,"62":-0.46813327971370866,"63":-0.5126179262059226,"64":0.010812793365681273,"65":-0.26947182901857064,"66":0.40048157185124317,"67":0.02278318732939078,"68":0.24221778034188912,"69":-0.01659603587988722,"70":0.15341388410592857,"71":-0.22772703330891553,"72":0.07860347394148051,"73":0.005739530921376097,"74":0.17254055453215245,"75":0.3674419080189328,"76":0.02076564191359988,"77":0.20863065899701244,"78":0.04470280199242741,"79":-0.0513963514453768,"80":0.37895889664212196,"81":-0.08598928883514707,"82":0.13171424061584375,"83":0.09514201811849127,"84":-0.02589926365646404,"85":0.09097512402603318,"86":-0.38409214419950577,"87":-0.2277995621712132,"88":-0.06104250540771906,"89":0.15536150255868086,"90":-0.03832747948148578,"91":-0.010754401897114777,"92":-0.1818304700188467,"93":-0.07181767327181661,"94":-0.19308439412892833,"95":-0.005418313102786399,"96":0.185058599911745,"97":0.11610387645659781,"98":0.22917668057486015,"99":-0.3699850260013011}},"4":{"bias":0.35801486898077756,"weights":{"0":0.8655400206140118,"1":0.7462752866803135,"2":0.07266559035334916,"3":-1.02927035359971,"4":-0.6720806519855589,"5":-0.9584486960504983,"6":0.3751639072966815,"7":0.9344270635687629,"8":-1.645303003576276,"9":0.27142193120142283,"10":0.5600048258952632,"11":0.6334318751679167,"12":0.48585152579416013,"13":2.2147650444139004,"14":0.7518369526529719,"15":-0.8490702582332892,"16":0.08505827613216305,"17":0.3785365835899344,"18":-0.9980556271904192,"19":0.4926678437450522,"20":0.6969757928831246,"21":0.5441210347603126,"22":0.25348281380029153,"23":0.702055570425993,"24":0.5972652597707713,"25":0.5629433777030363,"26":-1.3032059019218607,"27":3.407930366126936,"28":0.5445858493147249,"29":2.1820386657130837,"30":-0.8333060645538233,"31":0.6274960076750087,"32":0.551852339731676,"33":0.07112169038880216,"34":0.6001580255758184,"35":0.0018561839661421573,"36":0.43406854318717153,"37":1.0976936311789596,"38":0.7515352330089555,"39":0.5131799473126002,"40":0.7206342889954065,"41":0.530363607866912,"42":0.900709203839169,"43":-0.7466531725102366,"44":0.5521229846443675,"45":-0.07034138361012351,"46":0.9802099643603248,"47":0.45865906157163083,"48":0.606081945180201,"49":-2.9613642595110465,"50":0.6377271634923221,"51":0.7550532659739112,"52":-2.653322796387818,"53":-0.1896324015597543,"54":-0.8463238807224678,"55":0.7987673809053639,"56":0.24754714346832804,"57":0.8503356839811249,"58":0.4589829054346611,"59":1.406226962818711,"60":0.6302781018451826,"61":-2.0812080679463767,"62":-0.8666722593770905,"63":-2.4055987333788194,"64":0.5552551114542777,"65":0.4708381953131002,"66":1.5612168386422407,"67":0.5473541161638742,"68":0.44150468012135613,"69":0.6395332304633743,"70":0.7307062028479748,"71":-0.6971370591324791,"72":0.34870431913941524,"73":0.6622191720357355,"74":0.4450176385172045,"75":0.6245439115549354,"76":0.5464034429800774,"77":0.6014680202551779,"78":0.504504108734908,"79":0.618716811770867,"80":0.22639986704209022,"81":0.45503296084848277,"82":-0.5806717562663093,"83":0.5548466157014721,"84":0.9133947897709974,"85":-0.5749986578157251,"86":-2.267451916931929,"87":-0.5556522848476111,"88":-0.03810088635840045,"89":3.8913033158975447,"90":0.673862782655496,"91":0.9358473993974035,"92":-0.859137216627544,"93":0.562218374467354,"94":-1.6515016937472344,"95":0.3589523821588365,"96":0.285092803889481,"97":0.589457511847615,"98":-0.23480692876570905,"99":-0.9252436434089436}},"5":{"bias":-0.0823201826606727,"weights":{"0":0.1221729807617625,"1":-0.04015068775729798,"2":0.26042249640673915,"3":-2.3724388575607462,"4":-0.018563101074107646,"5":-1.5753300136850443,"6":0.08073552822982207,"7":0.2892130428039027,"8":-0.6884974076090756,"9":-0.26899651229798105,"10":0.2873167031972257,"11":0.04844568227652732,"12":0.3370410139251107,"13":0.8546702834998768,"14":0.25688550618612127,"15":0.2031429791583773,"16":0.11722814353060455,"17":-0.13922589896304438,"18":0.23662797590311646,"19":-0.2040795177077527,"20":0.26921307298188146,"21":0.11667849996141885,"22":0.8124634815968125,"23":0.33516169746815594,"24":0.12017978439105201,"25":0.057079346628402666,"26":-1.72346539830118,"27":0.8781482531878416,"28":0.00248200905871883,"29":0.2158511114024013,"30":0.17270152275684608,"31":0.24956100746866616,"32":0.016097401778044366,"33":-2.244928225388155,"34":0.19703642451702416,"35":0.45033429401865976,"36":-0.0488284428473716,"37":0.13036752220036887,"38":0.19500664618745223,"39":-0.13719025515699507,"40":0.19893282135915008,"41":0.15798894086220833,"42":0.37104989799471544,"43":-0.48457940573653124,"44":-0.032227824457370616,"45":-0.4823654325762739,"46":0.05514914076638612,"47":-0.11504009029832976,"48":0.27428789249683827,"49":0.3602462305754954,"50":0.2731038909500362,"51":0.3941817258646816,"52":-0.013561545242406743,"53":1.0878880713076597,"54":-1.294640060681806,"55":0.6506133780045862,"56":0.5012385512204969,"57":0.20284187630821177,"58":0.4197592666879489,"59":-1.8349733839234166,"60":0.3361630135910857,"61":0.2073821069196556,"62":0.23973304299773102,"63":1.4932228943206374,"64":0.3162662905267364,"65":-1.5880741339087576,"66":0.8065549674749587,"67":0.2400406583459429,"68":0.3624088374491074,"69":0.20787782010625616,"70":0.05239474783721428,"71":-0.6513909895843129,"72":0.03457183944027926,"73":0.05548798527882126,"74":-0.04739690663971521,"75":0.14453263393759616,"76":0.3411668715914469,"77":0.20277637375250362,"78":-0.10738525332207417,"79":0.024759501483561843,"80":-0.006723771261458922,"81":-0.041063922247469305,"82":-0.08875454433181613,"83":0.11153859170860814,"84":0.20400757889362364,"85":0.36914746017137157,"86":-1.7898322498391177,"87":0.16308768833009357,"88":-0.6484711783366556,"89":1.4628877844420936,"90":0.020409942249551626,"91":0.18809012770181457,"92":0.3481517652420002,"93":-0.011983601825539838,"94":0.30510040084789486,"95":0.2845564664344607,"96":-0.05779129288196196,"97":0.1290647302960976,"98":0.8008263880853159,"99":-0.8575929620178158}},"6":{"bias":-0.49875152655033,"weights":{"0":0.02453220076093537,"1":0.06091679065586352,"2":-0.20685532173328117,"3":0.5337774478397724,"4":-0.46968480040497224,"5":-0.3188406198670783,"6":0.001782027696033899,"7":-0.012137890569733502,"8":1.3489990702658707,"9":0.05625180170651779,"10":-0.27335107800036834,"11":0.20959446170122475,"12":0.0902710419431767,"13":0.7158280011579482,"14":-0.14244978839740596,"15":-0.22223819051610283,"16":0.18847157098147263,"17":-0.09477334351344316,"18":-0.4256709390602312,"19":-0.24157378459525447,"20":0.1404908657307742,"21":0.013467244413132408,"22":1.296452842949377,"23":0.008037925650585654,"24":0.04153893010072029,"25":-0.017028359939645337,"26":0.503392783150595,"27":0.0863353059543535,"28":-0.10737034931950785,"29":-0.42618617867681585,"30":0.13266797587601342,"31":-0.1435543628634275,"32":-0.026913596535894178,"33":0.8728768615566828,"34":-0.14573337960130708,"35":0.5502213155545486,"36":-0.3731593490091696,"37":-0.21996542420800375,"38":-0.1274913036903766,"39":0.10592209174405917,"40":-0.18964882069455755,"41":-0.21079012551967108,"42":-0.1527650108776552,"43":0.016565726512706644,"44":-0.1283920950247301,"45":-0.42323293769862996,"46":0.02829926396130253,"47":-0.012723722495147213,"48":-0.05518506828991307,"49":1.2793472823906704,"50":-0.18167105663352018,"51":0.051232500895856396,"52":0.06743869968337586,"53":0.6450901098460785,"54":0.34522522219689367,"55":-0.08015906083949943,"56":0.7845579585638318,"57":0.12993672280128282,"58":0.5558961000537908,"59":0.276466563963436,"60":0.4328513774394264,"61":-0.16665569440427178,"62":-0.5316312642153789,"63":0.6502533812148463,"64":-0.1265937042795861,"65":0.48777508052120516,"66":0.9397557371969606,"67":-0.1265345492872652,"68":0.013706380722236993,"69":-0.15436165725659082,"70":0.09436017071308375,"71":0.4927319131492129,"72":0.030232758026633905,"73":-0.14516772027026256,"74":-0.0549788440622495,"75":0.16072245839746743,"76":-0.09350976072308606,"77":0.028658647086942202,"78":-0.3555310709264746,"79":-0.14526923970780942,"80":0.4888185636584891,"81":-0.12844752480193405,"82":0.16110724716091993,"83":-0.255676113790545,"84":-0.2251945672586287,"85":-1.5771080082394124,"86":0.3127368408410595,"87":-0.32799419983064276,"88":0.08666917001899323,"89":-1.6774268632119478,"90":-0.15009838757132515,"91":-0.08752551150888871,"92":0.8847699816105825,"93":-0.1306728235450599,"94":-0.15988998049157843,"95":0.02466402570696126,"96":-0.05373023950145507,"97":0.0777593004861224,"98":0.5492463835642151,"99":-0.08362745486065856}},"7":{"bias":-0.22370043159624814,"weights":{"0":0.11424975389385778,"1":0.06596971715676858,"2":-0.3277189815271955,"3":-0.30699079691911413,"4":0.09713425792428816,"5":-0.09076182832248225,"6":0.13123702020225414,"7":0.22963242096963413,"8":-0.1715452962500975,"9":0.06795916399975492,"10":0.1438858313769168,"11":0.047569496813948696,"12":0.08454358071761998,"13":0.64992311158723,"14":0.017891648806779722,"15":-0.2285338691886146,"16":0.1521071638798525,"17":0.059068371429791995,"18":-0.2444434613578936,"19":0.17314718503759854,"20":0.12580922555093335,"21":0.0002653756665933562,"22":0.2614460680192355,"23":0.17044461057536922,"24":-0.12188376207466357,"25":0.02970970797638126,"26":0.06450488372016629,"27":-0.2084592984908642,"28":0.08514778838113395,"29":-0.3578436233236318,"30":-0.28387559857025363,"31":0.24505819048735333,"32":0.23146468187080083,"33":-0.15089831517970131,"34":0.01927317188148994,"35":0.10764039236707777,"36":0.11181301530616838,"37":0.02086127150424275,"38":-0.08598698591006258,"39":0.007628421069488222,"40":0.21468660023567476,"41":-0.014951763503718643,"42":0.233226585091791,"43":-0.1831995801474212,"44":0.04338801399084208,"45":-0.18578704990486042,"46":0.3107032997526954,"47":0.06432825392708783,"48":0.2341076988171197,"49":-0.033723147413529136,"50":0.14717647555892818,"51":0.285258509397087,"52":0.33338948969480303,"53":0.027198415258954802,"54":-0.07356545376391045,"55":0.10438046832854926,"56":-0.3005171051153465,"57":0.14309743948869028,"58":0.45998502069311153,"59":-0.2126089184238757,"60":0.10779190102910369,"61":-0.12620497998324523,"62":-0.1397236104807276,"63":-0.2605229040514609,"64":-0.007019803744013538,"65":0.028660546898041588,"66":0.17658544839157383,"67":0.17674551464837776,"68":0.11983173339970242,"69":0.07194079331112627,"70":0.03460748422936915,"71":-0.11781844126897215,"72":-0.1529856742110907,"73":0.3181751778879932,"74":0.1096295229096806,"75":0.1723667829559898,"76":0.11394315178496907,"77":0.17121598157123513,"78":-0.07173908474181759,"79":0.2510584269379032,"80":0.12155616112333942,"81":-0.13274920595737205,"82":-0.05018092169732106,"83":0.12754301316658626,"84":-0.02117104565875618,"85":0.042831838676992445,"86":-0.18887100824133837,"87":-0.09505622416871837,"88":-0.10413739703482659,"89":0.15252809446429422,"90":0.1401348723602129,"91":0.14255345203693381,"92":-0.0008900683510931881,"93":0.0283571234594119,"94":-0.05064211207203049,"95":0.16790613747324115,"96":0.012102013359600539,"97":-0.007643569315172689,"98":0.12270283719591163,"99":-0.051806168476886225}},"8":{"bias":-0.24525860320043788,"weights":{"0":0.2462114361370486,"1":0.17714489503845995,"2":-0.40384371922646356,"3":-0.2753638324758768,"4":-0.05544105846771089,"5":-0.13816876718476964,"6":0.21067098033208478,"7":-0.14108553626053197,"8":-0.248904803970142,"9":-0.005797290278973052,"10":0.04793954972925369,"11":0.12855650105043506,"12":-0.1105447952331339,"13":0.3511498098456199,"14":-0.13602372663886217,"15":-0.38496689376122345,"16":0.19637372416401638,"17":0.08025021883670942,"18":-0.2432283912988725,"19":0.09352806413937824,"20":-0.12218552873421627,"21":0.08388830384163364,"22":0.2874317351889637,"23":0.24124011230598652,"24":-0.0006701508477174914,"25":0.07277226770692821,"26":-0.1172587487848619,"27":-0.11048450451821845,"28":0.182312061380636,"29":0.15864228274688869,"30":-0.11835660760995931,"31":-0.07471258847527641,"32":0.15330148460106366,"33":-0.1178025975816037,"34":0.11156326350461142,"35":0.0418830721753247,"36":-0.15857143916989477,"37":0.052701400040065655,"38":-0.11240923304890005,"39":0.19651690759336257,"40":0.17301540198148396,"41":-0.06113430080089414,"42":-0.11228581273016419,"43":-0.3264411786453707,"44":0.06306307867369135,"45":-0.17021713830137147,"46":-0.07311357303115185,"47":0.05405196004018053,"48":-0.07715628399775977,"49":0.05006024950856108,"50":0.1612575889182931,"51":0.0415625291010613,"52":-0.06560274904090699,"53":0.19925100887847016,"54":-0.1560926442916952,"55":0.2041895362233572,"56":-0.2521262013351813,"57":0.2285329484650934,"58":0.32362120931883875,"59":-0.18033810843060083,"60":0.2526217926877591,"61":-0.12662093571242766,"62":-0.0975937307578338,"63":-0.21468814387741003,"64":-0.058453135810675766,"65":-0.3316766625520508,"66":0.24947008478900476,"67":-0.12844162800867387,"68":-0.058223158557135085,"69":0.12570057437140464,"70":0.2401700283552267,"71":-0.16968292931850135,"72":-0.082709837226319,"73":-0.0652924675677791,"74":0.11059801541101402,"75":0.058545154015457165,"76":-0.03617435286752529,"77":0.24556612021887572,"78":0.004297009921331413,"79":-0.003421718245303722,"80":-0.09482385947843805,"81":-0.15032592164052705,"82":-0.09816947207649557,"83":0.15771093661251026,"84":-0.11828460898991422,"85":0.07158226457833113,"86":-0.25531691726175226,"87":-0.21382591197432327,"88":-0.07114919353596062,"89":0.023963171875335896,"90":-0.05596026209553319,"91":0.030753276008620097,"92":0.05856061621076275,"93":0.0016765198111390097,"94":-0.16950769961305553,"95":-0.04838698135157159,"96":0.025599567819730877,"97":0.11520119961739693,"98":-0.014174573437236387,"99":-0.20120315067441433}},"9":{"bias":-0.05882279423042322,"weights":{"0":-0.05145744596442432,"1":-0.2025622638465782,"2":-0.026089320314474734,"3":0.21893401010184865,"4":-0.43629746516893736,"5":-0.21277678331604005,"6":-0.03878334395124817,"7":0.05962975810685134,"8":0.3705004859773262,"9":-0.1553734274726555,"10":-0.05500470108175352,"11":0.047791755682235704,"12":-0.18272098335819517,"13":0.196368871185593,"14":-0.15669437183437432,"15":-0.045426408233636105,"16":0.16833226042403532,"17":-0.21891318060110548,"18":-0.10209595531255033,"19":-0.053722068596636696,"20":-0.06703052263734867,"21":-0.07189562892431532,"22":0.3789605546734526,"23":-0.08743910478421202,"24":-0.07264409216508264,"25":0.11696382146816192,"26":-0.22473538620924122,"27":0.04124556821081747,"28":0.004865009079875634,"29":0.18344620532114095,"30":-0.19782591127747373,"31":-0.02287718283105961,"32":-0.15554212639097745,"33":0.05049567495151277,"34":0.08343012272299037,"35":0.1545722749650406,"36":-0.2204519597688473,"37":0.14138472897596907,"38":0.0140492126018037,"39":0.022608135366738967,"40":-0.15447508999268786,"41":-0.21565039614902762,"42":0.0610480191528304,"43":0.05624642050507029,"44":0.09660286442868174,"45":-0.0230391202808281,"46":-0.07558800756754924,"47":-0.010670099973296465,"48":-0.2343223395362928,"49":0.11662945251716827,"50":-0.22863564351161716,"51":0.053913076834079816,"52":0.19340064200242807,"53":-0.04029414498578874,"54":0.13479553495430366,"55":-0.27284915478699723,"56":0.18174315607305044,"57":0.15645747550240227,"58":0.3111839234561866,"59":-0.03216719253478172,"60":-0.053414055375020794,"61":-0.4248980352072271,"62":-0.03005887392080955,"63":-0.03933970092276941,"64":-0.0899477193402608,"65":-0.142092876285941,"66":0.11419987133057208,"67":-0.18120176656179993,"68":-0.15799778183300692,"69":0.20031539408968194,"70":-0.047371844869971265,"71":0.010917203034135351,"72":0.15498168905033624,"73":0.09817179897295265,"74":0.14297448499392024,"75":0.269168039785487,"76":-0.04588726556763249,"77":0.02078683916405125,"78":-0.023017657044353355,"79":0.07670461536471393,"80":0.10570676907917335,"81":-0.10789954145717966,"82":0.11976894480259496,"83":-0.014909732875227226,"84":0.011646540690737716,"85":-0.5393371076244213,"86":-0.1456849993519524,"87":-0.2927609699991675,"88":-0.20977591391456024,"89":-0.7030108818455462,"90":-0.2279755059923863,"91":-0.15730053352790174,"92":0.26271618217517184,"93":-0.009234668089291341,"94":-0.23652586638940404,"95":-0.18836346124616218,"96":0.07012619605271952,"97":0.14746030754130496,"98":0.07195355872531958,"99":0.010166515512350932}},"10":{"bias":-0.5195827132340048,"weights":{"0":0.4533956460485919,"1":0.5239509414709662,"2":-0.046822612561978234,"3":-1.7706305617147293,"4":-0.7606278009237539,"5":0.8979329745626555,"6":0.25513945132209925,"7":0.4107279550979845,"8":0.09443582879719087,"9":0.3118598808003721,"10":0.45348405444672524,"11":0.6221669559469121,"12":0.2182631921389521,"13":1.7478685058802057,"14":0.05962968352918143,"15":-1.9583854119597959,"16":-0.20852342484887126,"17":0.1694737991790744,"18":-0.8866877200459793,"19":0.37420103475321875,"20":0.35352557671978585,"21":-0.09351402885357438,"22":1.1105491779356194,"23":0.15550493042046032,"24":0.5949618011587572,"25":0.3137569078670372,"26":-1.4457722418581593,"27":3.821761102565959,"28":0.5679645760863584,"29":0.867654226671908,"30":-1.2626146241672815,"31":0.8665913863494007,"32":0.1354222827433358,"33":1.171362513517502,"34":0.259006711318807,"35":0.5913687573288514,"36":0.4705535728312924,"37":0.45326245721525266,"38":0.5573590731179022,"39":0.18173243371369158,"40":0.2044783548844937,"41":0.4285362116026316,"42":0.4452617498510929,"43":-2.2633795215999135,"44":0.3095504501511953,"45":-0.7640524853499945,"46":0.22849900843797652,"47":0.0775966795702051,"48":0.2975320918552012,"49":-0.48760834356433574,"50":0.3011875414017748,"51":0.30829483813656056,"52":-3.9018078807090504,"53":0.6394097708677225,"54":0.6983491007451431,"55":1.2436893153602078,"56":-0.5349248223908359,"57":0.32056504974970834,"58":1.8343144518804733,"59":-0.4189106876817448,"60":1.2124669240327481,"61":-1.0991450122385351,"62":-0.7231917125314121,"63":-1.729405238488509,"64":0.3927437930916455,"65":0.2934208261386975,"66":1.9659757809954095,"67":0.8585463416972599,"68":0.1939444010429149,"69":0.5343859434149043,"70":0.21152074955528988,"71":0.9023150000129395,"72":-0.2127927226531271,"73":0.40596102455891936,"74":0.4208331671122395,"75":0.8467702021123276,"76":0.5505284899201172,"77":0.4077068318020086,"78":-0.013297619268834335,"79":0.1090483156718875,"80":0.5851844335160625,"81":0.17753757274770646,"82":-0.3877146638985511,"83":0.11878784460501259,"84":0.3006047234070781,"85":-0.6185981054482997,"86":-0.6505426675134056,"87":-1.1566590390308948,"88":0.02547244145255811,"89":3.842478349468056,"90":0.5058891350613368,"91":0.5232139973139691,"92":-3.1368881851816264,"93":0.1711289533140541,"94":-0.9073126666761651,"95":0.12253066352426659,"96":0.022790651333569063,"97":0.3917730272850207,"98":0.18202542842510974,"99":-0.12144816876861121}},"11":{"bias":-0.2153126025934929,"weights":{"0":-0.14263598196053018,"1":-0.09021784081663123,"2":-0.10594798513483669,"3":0.12010200784170398,"4":-0.16152286168821467,"5":0.307108402140788,"6":-0.14917160812123978,"7":-0.2530787405259626,"8":0.22790326178070758,"9":-0.01918171002841638,"10":-0.029929461085842258,"11":-0.010362253169589155,"12":0.13973770004143893,"13":0.36618657884050354,"14":-0.09665392258662718,"15":-0.4573969745759785,"16":-0.18061178411918183,"17":-0.13683727203485851,"18":0.00048501406745449867,"19":0.003997949711436284,"20":0.16972048301383355,"21":0.09419899749771997,"22":0.22472708185823476,"23":-0.1972109646370135,"24":-0.0008552579811546236,"25":0.12911026819758445,"26":0.2386807303811017,"27":-0.032414720894263206,"28":0.04455629985663387,"29":-0.1687490559201483,"30":-0.011544649305542854,"31":-0.10638595356632209,"32":-0.16264031474944746,"33":0.12661842188759012,"34":-0.08893702189973411,"35":0.14397292755920763,"36":-0.316901179226182,"37":-0.03825906134662645,"38":-0.28429465572471413,"39":-0.25112793100236924,"40":-0.18275994891400907,"41":-0.2482117344671065,"42":-0.12499737796772728,"43":-0.33111934427298356,"44":-0.17199571327171478,"45":0.1725919004492128,"46":0.0330316997976586,"47":-0.001408555000383522,"48":-0.08574328227704177,"49":0.7802390982845795,"50":-0.21096110682649732,"51":-0.07762346071178923,"52":-0.2302257745377499,"53":-0.04659394756041568,"54":0.46370720511279473,"55":-0.35965705699867495,"56":0.08503216571641177,"57":-0.1780313412932984,"58":0.6140622572434736,"59":0.46828722307889054,"60":0.3896969072497081,"61":-0.12746632332690455,"62":-0.4177197287325312,"63":-0.26631576200935964,"64":0.0367275295721875,"65":0.2759346135240739,"66":0.4365472579834516,"67":-0.20148958622989271,"68":-0.06482738648949957,"69":-0.005702269128832052,"70":0.09254019810794722,"71":-0.38622394227638945,"72":0.007465082090307112,"73":0.14356527284073986,"74":0.16584272338148556,"75":-0.07235540946676734,"76":0.059099112234446624,"77":-0.22114270005813913,"78":0.0726820826320518,"79":-0.21758612924052587,"80":0.17881076556239436,"81":0.1267195191364027,"82":-0.2452345993157262,"83":0.06471673710842067,"84":-0.13271482018155034,"85":-0.5100340686786499,"86":0.673026608362565,"87":-0.3637032379096059,"88":0.15462543625820033,"89":-0.5726154484591972,"90":-0.05980864235254185,"91":-0.17572157886437673,"92":0.34124321237406363,"93":-0.10476457835459024,"94":-0.3123174028706752,"95":0.08481843062229429,"96":-0.16750897656184852,"97":0.10837544159629806,"98":-0.00017771720256665738,"99":-0.11598294131945101}},"12":{"bias":-0.16916020281380684,"weights":{"0":0.29490338323088955,"1":0.009568475471088262,"2":-0.1327210908771768,"3":-0.5032786665277081,"4":-0.3260295886486737,"5":-0.23116436994349499,"6":0.14976371528630059,"7":-0.11812670202933938,"8":-0.16231043588458663,"9":0.054310045262096804,"10":0.08109543169330305,"11":0.1490682166580765,"12":0.00738643507930074,"13":0.31472413453565395,"14":0.16123795129479776,"15":-0.20580022851525204,"16":-0.09510693720405679,"17":-0.08482895997705958,"18":-0.28243359002166896,"19":-0.00685735981125886,"20":-0.0035817628273584834,"21":0.002563292791961508,"22":0.05391925379732811,"23":0.06936597736358581,"24":0.2327845322803143,"25":0.03555762282480259,"26":-0.42380496305861654,"27":0.018493918690582145,"28":0.06289432048107434,"29":0.22028551519021314,"30":-0.019707827675854946,"31":0.17249788310148764,"32":0.16472636750598046,"33":-0.1093936506196804,"34":-0.029596995295449045,"35":0.2632995537607873,"36":-0.1564611713834133,"37":0.2515588647144929,"38":0.20804565019576343,"39":0.07350297435407094,"40":0.2030373557633439,"41":-0.1034489805690963,"42":0.12523393660040907,"43":-0.3097268197730516,"44":0.19257462186727797,"45":-0.2102140709332859,"46":-0.017448120816887208,"47":0.0871082065854609,"48":-0.043449970345444504,"49":-0.005945103814182442,"50":0.21574458516945427,"51":0.1534761264462031,"52":-0.1702869440331998,"53":0.05148802799081876,"54":-0.30090702987524676,"55":0.15727867073978283,"56":-0.2543373548780504,"57":-0.057774651657303965,"58":0.2482092969184458,"59":-0.4468544073842801,"60":0.36690883342610336,"61":-0.3796817400029375,"62":-0.36481130783672605,"63":-0.2736339595970691,"64":0.17089256696729613,"65":-0.30011951994400243,"66":0.4990227019875063,"67":-0.10726742434299623,"68":0.11953853840859215,"69":0.13809645241661234,"70":0.24824036554816017,"71":-0.19945280831610124,"72":0.022148575320781058,"73":0.26437663924229143,"74":0.2607621944959768,"75":0.1599161674408901,"76":0.00590265747435953,"77":0.19805715378369299,"78":0.052861110326000424,"79":0.06432106869402694,"80":-0.007092118275511789,"81":-0.19340654216819245,"82":0.13075568151018846,"83":0.05174335258223923,"84":-0.08536630083153503,"85":0.06227428697322251,"86":0.03529289390893667,"87":-0.4218288515982294,"88":-0.02973486808916382,"89":0.0211618243111205,"90":-0.12347954349589071,"91":-0.0780964461638582,"92":-0.12935779203309825,"93":-0.03146076335394085,"94":0.08286137952678724,"95":-0.09873244519727879,"96":0.14643958875025492,"97":-0.08795475540083815,"98":0.22632429865781772,"99":-0.2013362553470045}},"13":{"bias":-0.26394048618337507,"weights":{"0":-0.06811206266675666,"1":0.1808662047985091,"2":-0.3482169285017988,"3":-0.10756870487465714,"4":-0.24569809296724657,"5":-0.3469550632721216,"6":-0.1079018813168342,"7":-0.09669650944125277,"8":-0.14247160325599603,"9":-0.22459428834643208,"10":0.10005231895276821,"11":0.08697647580736043,"12":0.198599827466107,"13":0.11436750470569279,"14":0.13931710519855647,"15":-0.04983876548631169,"16":-0.15970866951036863,"17":0.04642322020195707,"18":-0.056512707773474904,"19":-0.008314043524923528,"20":0.21773397153127869,"21":-0.023930151843220313,"22":0.2547174221569563,"23":-0.04795193564772345,"24":-0.10254833812619049,"25":-0.15692063416766175,"26":0.2370725535442085,"27":0.10683542624239276,"28":-0.1390899278758956,"29":0.1431401246405382,"30":-0.1280847533776703,"31":0.12013005779663617,"32":-0.027056728156144527,"33":-0.05984985088212494,"34":0.04506576274165559,"35":0.10573671363668029,"36":-0.013932990968990963,"37":-0.0815529249164015,"38":0.16481357978584865,"39":0.025930321543556494,"40":0.18868938272167665,"41":-0.00867641098961365,"42":0.1620275576192888,"43":-0.21179840034732592,"44":-0.10746503535858469,"45":-0.09502018083696753,"46":-0.0009405664170300022,"47":0.13342553080307926,"48":-0.05960392469533133,"49":-0.26234033305645277,"50":0.20079722802570285,"51":0.2322556709449545,"52":-0.22954975649468262,"53":0.09329783018753947,"54":-0.1217361815089052,"55":0.12050261242224962,"56":0.005059176618717907,"57":-0.016385439130199072,"58":0.17142843788294052,"59":-0.3940193294782365,"60":0.0014796773250168416,"61":-0.038298976883567135,"62":-0.16922266977929276,"63":-0.07137140533749534,"64":-0.1818190291870443,"65":-0.21756798895698293,"66":-0.037435518273017,"67":0.020500484763479487,"68":0.0350757862174417,"69":-0.1651253371141345,"70":-0.048294693892746564,"71":-0.25368272733081443,"72":0.07999677649681912,"73":0.14354244032143154,"74":0.0027667203229558256,"75":0.04986464990371875,"76":0.06853829393063897,"77":0.0785273397748006,"78":-0.04626384943015128,"79":-0.16810843098566697,"80":-0.14400115410844314,"81":-0.1477379065560464,"82":-0.2683721754914605,"83":-0.13110912544113285,"84":0.0817460768483295,"85":0.033613403518502616,"86":-0.4894666961402075,"87":-0.2746309961895114,"88":0.1065877743754939,"89":-0.11780433446791258,"90":-0.0432395074763597,"91":-0.1513016024444948,"92":-0.017774869494220354,"93":0.17835882219769472,"94":-0.0276380195702159,"95":-0.08341235952036972,"96":-0.18938968137016984,"97":-0.09955727530315735,"98":0.16510431673676423,"99":-0.33687796213830445}},"14":{"bias":-0.30967763598085407,"weights":{"0":0.19635612049820048,"1":0.1340277912038192,"2":-0.5739793594509403,"3":-0.9340514716258762,"4":-0.5863112896091062,"5":0.06672366766244313,"6":0.11310346533419266,"7":0.3475131055099377,"8":0.4004022729639253,"9":-0.07786345145943563,"10":0.12160562411838681,"11":0.01575773198468758,"12":0.22932844294400495,"13":1.5255085473281798,"14":0.1603298943826714,"15":-0.839936120712735,"16":0.13493572189461472,"17":0.03774256227219341,"18":-0.77750045965455,"19":-0.0200842441701806,"20":-0.002105353435746876,"21":-0.01817854667104136,"22":0.3035950998989766,"23":0.3951648176329038,"24":0.3276899822412096,"25":0.29897732918194947,"26":-1.5115205492043613,"27":0.016036340910861608,"28":0.18770745464234914,"29":1.2285447304970882,"30":0.013973044155251402,"31":0.07289421229693868,"32":0.03388232731403536,"33":-0.3182775579393349,"34":0.141854316877887,"35":0.5180821593651682,"36":0.3023077468938938,"37":0.2248359424375275,"38":0.20810867313624923,"39":-0.04676277918334654,"40":0.026237808720081635,"41":0.2942223932557857,"42":0.2358273717020011,"43":-0.8906859358733712,"44":0.3464870178504381,"45":0.1707049856066014,"46":0.1571447162473069,"47":0.14278755988967315,"48":-0.00008791627849035708,"49":-1.2445814657775283,"50":0.13829068616114817,"51":0.17821225976936095,"52":-0.34207789512696496,"53":0.24208311376068728,"54":-0.4632275725639038,"55":1.1883156810302757,"56":-0.877505036366958,"57":0.3067358236664072,"58":0.894920953664076,"59":-0.39370261349539887,"60":1.2035445255375736,"61":-0.6684518336380091,"62":-0.05250737079247552,"63":-0.07889494947883173,"64":0.3673772759035407,"65":-1.1041285643113286,"66":1.2594986988448533,"67":0.24923119469653832,"68":0.21965680506675503,"69":0.09439312973048117,"70":0.13868429664606083,"71":0.10647968207112248,"72":-0.10002361352916359,"73":0.38216301884357057,"74":0.043666646013494334,"75":0.17776837012343522,"76":0.27406054831370463,"77":0.1853100067083404,"78":0.00979394389597001,"79":0.05617966249367817,"80":0.2979708300161219,"81":0.11005057418929338,"82":-0.0013389475187324603,"83":0.03624784416107898,"84":0.2093114333022469,"85":0.3658680107619721,"86":-0.0608833001729876,"87":-0.12721093974421643,"88":-0.281547151036774,"89":-0.4621735266854442,"90":0.10526185704967804,"91":0.3856534895240049,"92":0.19870641680913387,"93":0.30305616895528836,"94":0.11623659732080725,"95":0.24978191373509354,"96":0.14770685625197397,"97":-0.020098697616454653,"98":0.41083597607269867,"99":-0.6757725829679261}},"15":{"bias":-0.30706250148340825,"weights":{"0":-0.04738138972641259,"1":-0.09229359127229199,"2":-0.16902480449695215,"3":-0.3713176516532702,"4":-0.47301671397314027,"5":-0.4523083668264814,"6":0.2685423027944804,"7":0.0016255135099595734,"8":-0.1256742488856885,"9":-0.16439060375052833,"10":-0.05411539095664749,"11":0.00939010655056178,"12":0.15815558447052194,"13":0.2787794423835603,"14":0.15322650201739504,"15":-0.31823716717082384,"16":0.1762324342337243,"17":0.22798035635860214,"18":-0.33521717345716007,"19":-0.060043852004732085,"20":0.20411271610563975,"21":0.0352545534490263,"22":0.5113580080454867,"23":0.13479711401835454,"24":0.2644080953931729,"25":0.0249094475605763,"26":-0.10332139191142348,"27":0.09981070394426807,"28":0.22452645335645793,"29":0.49950348497646024,"30":0.05262946253085245,"31":0.16203665237287201,"32":0.026705837743582875,"33":-0.18210573177106815,"34":0.2648754209508248,"35":0.35504407249513686,"36":-0.046197664343340786,"37":0.2990892909000754,"38":-0.09695825888086226,"39":0.05384146583555707,"40":0.05578438197715829,"41":-0.07609843034348122,"42":0.21011202298499893,"43":-0.2145345119746084,"44":0.09359576249388987,"45":-0.18751893267866038,"46":0.05701072324632134,"47":0.19481949866459053,"48":0.07265315516390106,"49":-0.10513172847576878,"50":-0.02982795397372023,"51":0.17868950719769708,"52":-0.3655121390299935,"53":0.17259915891202773,"54":-0.16720859270862778,"55":0.2091879671480795,"56":0.008539972713584943,"57":0.12083695140727065,"58":0.07753138049087786,"59":-0.43645775394228553,"60":0.1526514160619077,"61":-0.17974806012165573,"62":-0.04801832720625105,"63":-0.09678798654082392,"64":0.12516225220031577,"65":-0.3506712057118182,"66":0.7399634202834341,"67":-0.0180774304567976,"68":-0.0627703184798882,"69":0.1748826813383918,"70":-0.05910769691179957,"71":-0.2645921887004011,"72":0.0043666610381810226,"73":0.3497422166213986,"74":0.27945234350729903,"75":-0.03297005826350619,"76":0.12401351319969606,"77":0.28010676272661844,"78":-0.1109790155305507,"79":-0.05642245628731626,"80":0.33136512129877993,"81":0.14171269681868962,"82":0.04338279539635137,"83":0.23231344044772742,"84":0.1936168792275892,"85":-0.15888354271656496,"86":-0.3514652594048028,"87":-0.24917789489453215,"88":-0.19967303698042332,"89":-0.1620431229914013,"90":0.14501263697002875,"91":0.3581493805943124,"92":-0.06228019015912109,"93":0.0465550987036628,"94":-0.045466352417505664,"95":0.18612537131036516,"96":-0.09757538853506238,"97":0.21580474903598473,"98":0.0956419556074052,"99":-0.31590954548724126}},"16":{"bias":-0.18661364526276877,"weights":{"0":-0.006762869066037973,"1":0.06691792858222748,"2":-1.0420728884540382,"3":-0.8947388538817422,"4":0.17330086737717157,"5":0.4579217152808466,"6":-0.02258645100503386,"7":0.08004339311780112,"8":-0.4290807899743285,"9":0.07328189320455797,"10":0.053225065668755914,"11":-0.04341527361613245,"12":0.38781278985472717,"13":0.6725669720192152,"14":0.13475475383539617,"15":0.16558507899110467,"16":0.13090641843011847,"17":0.10522103700713052,"18":-0.19019674992791644,"19":-0.2404891208027066,"20":0.23561569238423025,"21":-0.11342104924155978,"22":0.09385776158704984,"23":0.06168984669875113,"24":0.10759906058732492,"25":-0.06466135275147418,"26":-0.6142251062124555,"27":-0.20536718221425104,"28":-0.07063669710854749,"29":-0.7685405694410807,"30":0.252468042217349,"31":-0.14124716551520172,"32":-0.19527454971840338,"33":0.12360313438733272,"34":0.1532646929585267,"35":0.07569507688733619,"36":0.05846410665773421,"37":0.07563271940735398,"38":-0.0798657247267973,"39":-0.04083055759995009,"40":-0.13643812839258496,"41":0.16544669317760619,"42":0.17764167059200844,"43":-1.0408540980112584,"44":0.0754128876876181,"45":-0.1054972641649893,"46":-0.05627444067427531,"47":0.09683281760187142,"48":-0.09463096937712713,"49":0.8142702457786297,"50":0.11988800764777872,"51":0.041065434045368596,"52":-0.10414666821393445,"53":0.06121737080230401,"54":-0.47701053115572734,"55":-0.38390104452901735,"56":-1.0662266705158643,"57":0.09898272035130254,"58":0.3872695757751089,"59":-0.199668866464802,"60":0.313848976272231,"61":-0.3137529360181895,"62":-0.19327180543277808,"63":-0.5075744988072903,"64":-0.14759149601676474,"65":-0.30481041217049576,"66":0.8783716140963369,"67":-0.07541123517817744,"68":0.14222740827986105,"69":0.06333423065483129,"70":0.19713638146773846,"71":-0.4251544752456617,"72":-0.27827896518169287,"73":-0.050940253734279586,"74":0.04758653690075502,"75":0.03984634897594018,"76":-0.15514110625721614,"77":0.10393413157764178,"78":-0.05011842736604658,"79":0.02766982850312987,"80":0.18974852693632496,"81":-0.03657423774083274,"82":-0.0609397516333218,"83":-0.09731884895675359,"84":-0.09130269292758628,"85":0.22512319818479715,"86":1.5062582385728172,"87":-0.19425136929882514,"88":-0.5137874132766888,"89":0.09531164239948557,"90":-0.17234157762362282,"91":-0.04146710044749862,"92":0.7705572536443432,"93":-0.25231598028396107,"94":0.3940975018732633,"95":0.03834860382105083,"96":-0.04101668943787151,"97":-0.14544224335681122,"98":0.17432345575668873,"99":-0.1622520857265112}},"17":{"bias":0.3424223823240258,"weights":{"0":0.07814286269013813,"1":0.22832917595106833,"2":1.9986873208470661,"3":-2.7247446975964067,"4":-0.50875813977026,"5":-1.5651741812288689,"6":-0.1461387883050364,"7":0.310596397328055,"8":-0.8058552234281521,"9":-0.15774051632075153,"10":0.3380921112324264,"11":0.192889614995644,"12":0.2749109464062876,"13":0.8732726132537005,"14":0.029732196536418638,"15":0.23336814121720956,"16":0.10289364263239126,"17":-0.10197372501227389,"18":0.9646960943516292,"19":-0.3508659830392499,"20":-0.06427330000313765,"21":0.02277489721427018,"22":0.3509929628236666,"23":0.3164819906998334,"24":-0.09859455478878629,"25":0.1484562290157954,"26":-1.767870925763505,"27":1.2774737562877585,"28":0.24755115732875985,"29":2.169271339202262,"30":0.6552893214008646,"31":-0.16409551038843023,"32":-0.060469701280705494,"33":-2.407285248552451,"34":-0.14728080655949927,"35":0.18053976669478147,"36":-0.06557681161650844,"37":-0.04420926203824058,"38":-0.044976835355585075,"39":0.06836159757123636,"40":0.008349727485588763,"41":0.10368149582224365,"42":0.18702389265786956,"43":0.3265335321728553,"44":0.3035640410290066,"45":-0.3648648433050932,"46":0.1368071140750036,"47":0.11784181064910065,"48":0.193957530603425,"49":-1.800407476766783,"50":-0.020026903462738013,"51":0.13335260220907913,"52":0.5921609605924796,"53":0.3878314922227721,"54":-1.3468663258702605,"55":0.5293428298180516,"56":0.677872183495994,"57":0.3865571587194841,"58":-0.3003492064171065,"59":-1.7934511179788672,"60":-0.19692716598145202,"61":0.015478339080126111,"62":0.9305368829707604,"63":0.6864052998178393,"64":0.17487658996083535,"65":-2.41013903947555,"66":0.3431633115121451,"67":-0.124443104475378,"68":0.26579075514179235,"69":0.16461497350595344,"70":0.04590415599037527,"71":-1.3127175932766533,"72":0.14803088023128286,"73":0.15418858122243878,"74":0.06368320301113368,"75":0.1056081386644068,"76":0.37439776327772384,"77":0.32558614082566745,"78":0.0035372352532289384,"79":0.027140584532258316,"80":-0.367913684087165,"81":-0.1436542190916338,"82":0.06429229420068981,"83":0.08983482872882452,"84":0.3578228172642367,"85":0.6420272415721731,"86":-2.6858244429252625,"87":1.2030747023723176,"88":-0.311859360841458,"89":0.35708048984872864,"90":0.01386065362351598,"91":0.15270708897619437,"92":-0.8430816476028071,"93":0.24997981778060185,"94":-0.08860736561127938,"95":0.06896196680900496,"96":-0.14211004812193273,"97":-0.022841123118877014,"98":0.17365335767118525,"99":-1.4784083057070578}},"18":{"bias":-0.058643847327403395,"weights":{"0":0.17140371189082,"1":-0.022870400180893334,"2":-0.592345605159094,"3":-0.9889245800192729,"4":-0.5824027848542106,"5":-0.4171861783852987,"6":0.11941779378036937,"7":0.10154090284293377,"8":-0.15868575116212996,"9":0.20564633422279777,"10":0.19470815155335724,"11":0.07456946318389056,"12":0.5653439583413571,"13":1.079770556142494,"14":0.40547491607119834,"15":-0.8518214673398817,"16":0.16301731954726525,"17":0.18618137987476804,"18":-0.6844295894376025,"19":0.05122725984030442,"20":-0.024752371814696104,"21":0.03156250836043131,"22":0.1585780667803706,"23":0.23715570659360216,"24":0.037296058921658284,"25":0.41889802270563403,"26":-1.5130578083757331,"27":-0.029883760637301728,"28":0.23990437594118796,"29":0.9576989304223266,"30":-0.4135106098007396,"31":0.2993491172734972,"32":0.36708962049742183,"33":-0.9187182487204627,"34":0.14605338365186507,"35":0.3560593800362003,"36":0.2756491575582407,"37":0.3443959123025243,"38":0.2943987489847388,"39":0.26543885283987073,"40":0.23994910329334956,"41":0.2699387321833059,"42":0.5058085277561029,"43":-0.5423963851620014,"44":0.32541381201451314,"45":0.40155551683115975,"46":0.19888205124331856,"47":0.1670398090630141,"48":0.12084467400880566,"49":-1.3047825456087923,"50":0.25609282233549274,"51":0.38782823200424216,"52":-0.22903095368805013,"53":0.44826473394057276,"54":-0.4652299743502595,"55":1.4148103690381792,"56":-0.649993814747236,"57":0.4040764807758075,"58":0.8557939463041018,"59":-0.9805672594459355,"60":0.4300270091820454,"61":-0.1101536554325355,"62":-0.2142781850633322,"63":-0.37972308829622065,"64":0.0977095899616166,"65":-1.2228809407831163,"66":1.2173446427343961,"67":0.1600671127055088,"68":0.21403977392555826,"69":0.2529431457370385,"70":0.3339237998925516,"71":0.3118499181558488,"72":-0.01783780448452229,"73":0.26718819202982785,"74":0.3314555056836699,"75":0.28389666540347513,"76":0.3468067793459385,"77":0.4156490294816799,"78":0.19374789453088462,"79":0.17979401082962676,"80":0.1498939913133318,"81":0.029798336326704835,"82":0.1766306197100025,"83":0.317021381797497,"84":0.17867184402370964,"85":0.5472639566667689,"86":0.0713022334378064,"87":-0.13822235881443604,"88":-0.3640620962165816,"89":0.3518445446840764,"90":0.24915105091494008,"91":0.15828969966094375,"92":-0.5827079361561743,"93":0.04672891478253517,"94":0.06039863163428097,"95":0.1765368173076653,"96":0.20422398813741371,"97":0.04922879042877015,"98":0.29420649601400845,"99":-0.7098645765677674}},"19":{"bias":-0.03263206871896878,"weights":{"0":-0.041606050935310654,"1":0.046089927387863605,"2":-0.10376434391800678,"3":-0.017440930434796054,"4":0.0428021040351102,"5":-0.5398675936449425,"6":0.1222819318831358,"7":0.10761101999019286,"8":-0.3610098513874054,"9":-0.08654768406777716,"10":0.16193010524887824,"11":-0.06148080548194375,"12":0.19707709091097145,"13":0.8679919216722598,"14":0.3070519252288067,"15":-0.7908700873468136,"16":0.0837638732235524,"17":0.15665829210386442,"18":-0.46210370492414105,"19":0.11618821796778984,"20":0.01056337243296069,"21":-0.1785004670322489,"22":0.270100992613236,"23":0.10158877621003566,"24":0.0974740350799211,"25":0.3385487974431703,"26":0.10910738414065577,"27":-0.6311483026908996,"28":-0.05343724265785231,"29":0.13491202035545757,"30":-0.17970959472460288,"31":0.10181090178878648,"32":0.12175516892859857,"33":-0.1851445544621747,"34":-0.05518629386740813,"35":0.07663487651340971,"36":0.04319919251934825,"37":0.16129472346965298,"38":0.06689619614031965,"39":0.0640441133133688,"40":0.1314186669154686,"41":0.24740845306094877,"42":0.22143670030063312,"43":-0.1404868600492341,"44":0.29405203959135995,"45":0.015855424750246035,"46":0.22195965674404097,"47":0.06667355519462662,"48":0.07254021568767571,"49":-0.7205598388319312,"50":0.04429909308986522,"51":0.26868721148407043,"52":0.4408988676419055,"53":0.00912578013367208,"54":-0.2204706823978424,"55":0.5811922026200202,"56":0.08946731079903242,"57":0.12880478202610676,"58":0.0999250405277314,"59":-0.5287703821539413,"60":0.4184230324461251,"61":-0.5764971440287195,"62":-0.25192059344305556,"63":-0.28517086543994535,"64":0.28470364241842355,"65":-0.9961536458409443,"66":1.0690406938257322,"67":0.01494739832072407,"68":0.3224528590460823,"69":0.28200309881142693,"70":0.20313976664882208,"71":-0.432711239348188,"72":0.022604792252005314,"73":0.30923818217410354,"74":0.0670852746213615,"75":0.09252899000253834,"76":0.18523279903562637,"77":0.08972555557101262,"78":-0.0035368299416266608,"79":0.11375380249542373,"80":0.3425122161879702,"81":-0.19734732668456345,"82":0.11911941468067096,"83":0.252212327216904,"84":0.0892980603114685,"85":0.14964916598149464,"86":-0.5108342154728278,"87":-0.4677135733807719,"88":-0.16302613862495974,"89":-0.08710746443734402,"90":0.25895708683611834,"91":0.0056764832085721365,"92":-0.22479310754833554,"93":0.23107213094191917,"94":-0.008118581040827761,"95":-0.04991994962021108,"96":-0.07366427365830214,"97":-0.01658247252856041,"98":-0.008717466061237075,"99":-0.031699697065302415}},"20":{"bias":-0.13671709715702046,"weights":{"0":-0.05528749707893271,"1":0.18374633786484182,"2":-0.3092549306762864,"3":-0.42922557355164165,"4":-0.2884836634383717,"5":-0.6035140537950292,"6":-0.14388858469938604,"7":-0.1315352645792237,"8":0.16696746903259677,"9":0.12430314749339684,"10":-0.042570626118460554,"11":-0.032645858922727006,"12":0.08731885577737317,"13":0.1421743946716328,"14":0.2357401595419441,"15":-0.1768978705478877,"16":0.020575203570699287,"17":0.1936648888326346,"18":-0.2723650484790674,"19":-0.05273353535289403,"20":0.09528970308662718,"21":-0.11795042186879633,"22":0.47199165157040507,"23":-0.06704768967844363,"24":-0.09921107519842336,"25":0.2538363881467643,"26":-0.4286104449982716,"27":-0.05821415639764127,"28":0.0347602313263703,"29":0.16131430476213698,"30":-0.08662773343121001,"31":0.1363399451908274,"32":0.17542322377367392,"33":-0.23193787704108448,"34":-0.06548050164051493,"35":0.2009627536353581,"36":0.18165427980030519,"37":0.11120091048983784,"38":0.1673187457714076,"39":-0.1120429909933373,"40":0.23669129812704526,"41":0.18102746149878263,"42":0.16479875841460892,"43":-0.058961161662912084,"44":0.1947361872440949,"45":-0.222276987386905,"46":0.015985486880251455,"47":-0.1359454882552796,"48":-0.08352150181060863,"49":0.1501862237016586,"50":0.05998956945181502,"51":0.27522502599503795,"52":-0.3828984150474757,"53":0.2671468621133216,"54":-0.22416159498025315,"55":0.06654984660542843,"56":-0.06535062726056898,"57":0.17144905488553508,"58":0.1792454609727681,"59":-0.32982417474835424,"60":0.13114958208968472,"61":0.010902702471996999,"62":-0.04063185770973832,"63":0.17087597325803006,"64":0.22721389552494742,"65":-0.1971628614464628,"66":0.4648037647174071,"67":0.13345894476200193,"68":-0.07069406871133276,"69":0.11110733171049163,"70":-0.014165531325581765,"71":-0.019293260765736116,"72":-0.15983376439058106,"73":0.2064108781110737,"74":-0.06744406410340843,"75":0.05577909347702643,"76":-0.0761202904079613,"77":-0.06598413708273747,"78":-0.20604926265978665,"79":-0.10741135485609819,"80":0.14702268674954608,"81":-0.23167659148367645,"82":-0.023005416711950173,"83":0.1402032432086118,"84":0.20522891856637457,"85":-0.19469612637004943,"86":-0.5431196388454537,"87":-0.3984322462506693,"88":0.009874602683232116,"89":-0.17166929521682928,"90":0.1640958918215262,"91":0.28879166949498986,"92":-0.08152589084919784,"93":0.09611371682955093,"94":-0.016216922622267305,"95":-0.020618276125788922,"96":0.1782944243136588,"97":-0.0858287248681806,"98":0.40020080130468627,"99":-0.32794803797913674}},"21":{"bias":-0.28795684358316864,"weights":{"0":-0.02225597967765535,"1":0.1679146139839862,"2":-0.14446223745227146,"3":-0.17143630874361201,"4":-0.3731279910062332,"5":-0.39356477836352294,"6":-0.0290772902753188,"7":0.008964660944658505,"8":-0.1910441164337846,"9":0.14046950416950885,"10":0.050167593358613226,"11":0.2296977549438143,"12":0.12779258764110174,"13":0.36887327709932616,"14":-0.13985718226908522,"15":-0.34483938217873084,"16":-0.052281410766829864,"17":0.10687219183095839,"18":-0.17309475969530128,"19":0.07266233621831521,"20":0.09077997649495778,"21":0.000906783116579059,"22":0.08771961016766949,"23":0.17561698425641356,"24":-0.1250103203512132,"25":-0.049655874454973506,"26":-0.1914131715969751,"27":0.09732943110082781,"28":0.18008626451271745,"29":0.19528426995608308,"30":-0.21353889266455583,"31":0.1712620781362338,"32":0.07423524398578532,"33":-0.2811668567684204,"34":0.0714190767049566,"35":-0.01648098690368659,"36":-0.10918173869574287,"37":0.23352862458366747,"38":-0.04038741045967692,"39":0.08511244958656858,"40":-0.027758840981376324,"41":0.1376959539076628,"42":0.261761458608164,"43":-0.39986698416932015,"44":0.17834025297839717,"45":-0.13732383205424228,"46":0.26164248414116537,"47":0.11742818832401367,"48":0.19177626209703968,"49":-0.07992090155977653,"50":0.11537494535192411,"51":-0.0071157377184474565,"52":-0.0037016754489580866,"53":0.15057680717968303,"54":-0.26882968970626686,"55":0.10938891163217469,"56":-0.03899623317127374,"57":0.1035547774112628,"58":0.1384050504546325,"59":-0.30265266251609263,"60":0.00610784370646844,"61":-0.31681632486224914,"62":-0.4187443106009968,"63":-0.1502452792852673,"64":0.05532862790714569,"65":-0.04004505055483133,"66":0.31022053231633073,"67":-0.14159681149871622,"68":-0.15559517381830842,"69":0.1422176857127393,"70":-0.04956280552767644,"71":-0.16595325033079705,"72":0.08985651845388995,"73":0.27929643148182687,"74":0.17222945558783412,"75":-0.09572945146916158,"76":-0.014371033241076435,"77":0.19538493857400271,"78":-0.023836848247642903,"79":-0.08539785528820472,"80":0.21597769054858118,"81":-0.02420236240837019,"82":-0.2110959404707035,"83":0.18619730960971329,"84":-0.10580454782623981,"85":0.02353218924589351,"86":-0.1352076663817865,"87":-0.09213712102530273,"88":-0.06768364903622665,"89":-0.08191569200907703,"90":0.05183328902828964,"91":-0.0760086414874725,"92":-0.13397896471442536,"93":-0.17994305984044537,"94":-0.049727866987688926,"95":0.018970734900086838,"96":0.04252410757000464,"97":0.1470956338146238,"98":0.2504026187634765,"99":-0.29108986402824505}},"22":{"bias":-0.08830185821534456,"weights":{"0":0.05453376967773686,"1":0.21360851919180152,"2":-0.26383886446252863,"3":-0.44360342433234823,"4":-0.050224978058622236,"5":-0.11496916014056892,"6":0.1409568759505763,"7":0.13621107481631803,"8":-0.11320257814907156,"9":0.028160143416891707,"10":0.15313940586331154,"11":0.1308376016555639,"12":0.07859070329480372,"13":0.7269317876018787,"14":-0.06637545419533714,"15":-0.32537306376130426,"16":-0.0009129828600754638,"17":-0.12213882931519164,"18":-0.34421260197029246,"19":0.12005337968979793,"20":0.02581559824073355,"21":-0.056884102476016586,"22":0.41756360481119636,"23":0.11578605423928742,"24":0.18690666831444486,"25":0.1687387200573546,"26":-0.39638153173362867,"27":-0.027355438964168064,"28":0.22173501559933845,"29":0.29274290707667106,"30":-0.11951988396692577,"31":0.042138603765539295,"32":0.22920272879553186,"33":-0.3310506752298981,"34":-0.1311800838646853,"35":0.12946988667607326,"36":-0.11286111336848059,"37":0.11734080636635384,"38":-0.09270544274919575,"39":0.12622351739876161,"40":-0.02356593102807973,"41":-0.031053798406907772,"42":0.25034395975911694,"43":-0.47490777555938757,"44":-0.11198824536381582,"45":-0.233832387548947,"46":-0.015635303151103383,"47":-0.15682705670290592,"48":-0.029903880990212028,"49":-0.5793916102881954,"50":-0.12606956993899923,"51":0.26856083132814945,"52":0.1094301345085282,"53":0.3009804742408805,"54":0.03617805532786131,"55":0.40289743001274775,"56":-0.3286648895374235,"57":0.2053585488342755,"58":0.25884680660950493,"59":-0.4030388264429301,"60":0.11990205370306448,"61":-0.3760271864158071,"62":-0.38560710645478824,"63":-0.41195219842496655,"64":0.01103048044717244,"65":-0.3297692526269461,"66":0.22095248621668578,"67":-0.1087018898919163,"68":-0.12536702372237626,"69":-0.041325458493764906,"70":0.13463175252973922,"71":-0.1283254635958967,"72":-0.05758530163011262,"73":0.00736454478961791,"74":0.0018113095630859343,"75":0.22893792079795916,"76":0.0806744725020493,"77":0.11959509211913331,"78":-0.09571517781185332,"79":0.24741789477141635,"80":0.09005827503290598,"81":0.10208013501242696,"82":0.029761423033151935,"83":-0.08896169682871508,"84":0.16454053466431767,"85":-0.04063569494393093,"86":-0.5198843032884451,"87":-0.09245073857454499,"88":-0.26175120628307386,"89":-0.14385391718739546,"90":0.07659498482893407,"91":0.025568915947153097,"92":-0.007180128495046109,"93":0.1448906964436867,"94":0.04821838856273175,"95":0.1620155276055524,"96":-0.0794411871144676,"97":0.07388873220460007,"98":0.2923861414800691,"99":-0.20844401143302088}},"23":{"bias":-0.2774812567347431,"weights":{"0":0.0780972808723908,"1":-0.08687200713035223,"2":0.06445612634422794,"3":0.21267960496943378,"4":-0.44830177445476393,"5":0.1379089955555826,"6":-0.1326897250156819,"7":0.11697939497978663,"8":-0.20857906602836912,"9":-0.07491552008531048,"10":0.1039151435687467,"11":-0.15533459146627754,"12":-0.13474901317005403,"13":0.08672530970667876,"14":-0.16115223887140034,"15":-0.02966901316347822,"16":0.0473408786226967,"17":0.1045621429961175,"18":-0.28799931133141116,"19":0.10530707096699903,"20":-0.018355464589343368,"21":0.06482903825181872,"22":0.07023628977766681,"23":-0.20625537622183346,"24":-0.15648184922692918,"25":-0.13282250524508157,"26":0.10336896412862079,"27":0.00489711656151168,"28":0.16758998089423902,"29":-0.25207113322163505,"30":0.0970831362777325,"31":0.11046754469150641,"32":-0.042575889905100556,"33":0.21793281757433106,"34":-0.011833765881352128,"35":-0.03817897607564673,"36":0.045138454593346346,"37":-0.1946343760002991,"38":-0.2408556006680417,"39":-0.15628395914671006,"40":-0.028788641606642282,"41":-0.2521351284391848,"42":0.08702216460115579,"43":-0.09886423643785464,"44":-0.053534267458391946,"45":-0.02294542263818969,"46":-0.17656800854844842,"47":0.11076377690347816,"48":-0.08512876161773783,"49":0.16459333435140636,"50":0.05597256611320215,"51":0.04683693906374499,"52":-0.16528470657331862,"53":0.029982926137082,"54":0.11890902578034837,"55":-0.16983048957746055,"56":0.13466465314465967,"57":0.019801803975802848,"58":-0.06320790813818118,"59":-0.013351830845967912,"60":0.01499219991561596,"61":-0.37245354842659495,"62":-0.08635904592621985,"63":-0.14155182764275256,"64":0.0012394682185301498,"65":0.13027838469666983,"66":-0.06682903784225218,"67":-0.23626472501112747,"68":-0.2368584397090405,"69":0.1236288044722242,"70":-0.00485586738234157,"71":-0.025392474998409888,"72":-0.2337801602716664,"73":-0.1966862545960606,"74":-0.10231028127203301,"75":0.06314014873328391,"76":-0.1010434462098736,"77":0.06778502153245779,"78":-0.2000041159851147,"79":0.085533731127641,"80":0.10249289032853282,"81":0.026373775570547917,"82":0.030181531962818323,"83":0.0950524214040305,"84":0.10339966995604073,"85":-0.47352746473033686,"86":-0.04226398070822735,"87":-0.1701724084084267,"88":-0.12675406791447008,"89":-0.6959782385416926,"90":-0.09119244273514157,"91":-0.03756550031782464,"92":0.003972260892089592,"93":-0.10801608354876563,"94":-0.03408878173919417,"95":-0.14829708603823363,"96":-0.19421492582696068,"97":-0.12776833979722987,"98":-0.06834719218483581,"99":0.13649949018361862}},"24":{"bias":-0.4434422395075744,"weights":{"0":-0.18447458055502186,"1":-0.08877250940527343,"2":0.04312310668300183,"3":0.40547409139983975,"4":-0.03688711682077382,"5":0.31408400611817017,"6":0.0869483288855675,"7":-0.006101957314483604,"8":-0.009483598665015665,"9":0.1355951405924889,"10":-0.03929544303172365,"11":-0.1475545594072754,"12":-0.05553069107917774,"13":-0.04936748760900026,"14":-0.2660950130961435,"15":-0.2856713241361423,"16":0.03448977174840167,"17":0.10500810346968124,"18":-0.29636195045010383,"19":-0.11946300677819456,"20":-0.23410913205356393,"21":0.1146418612848069,"22":0.3346437947093259,"23":-0.06853812701695887,"24":-0.25920810925870813,"25":-0.26773598499422346,"26":0.6181147560557828,"27":-0.42199953459880013,"28":-0.24490178314816705,"29":-0.3459833060409424,"30":-0.13993948591285693,"31":-0.24175398985443303,"32":-0.20698223359744572,"33":0.5977737072241182,"34":0.031976515819528484,"35":-0.1505885796415046,"36":-0.13919518045313714,"37":-0.2961086285755605,"38":0.017136932953528493,"39":-0.3126711783256205,"40":-0.21034479250775417,"41":-0.13760765869954725,"42":-0.2375345220280392,"43":0.0003959489292500646,"44":-0.17399083491692996,"45":0.3240662088838162,"46":0.049163152659369026,"47":0.006457686731922751,"48":-0.04165978757862195,"49":1.0338737440302983,"50":-0.23857381961988758,"51":-0.27170271356607933,"52":-0.10104997924863877,"53":-0.040945486595630534,"54":0.28247355598574286,"55":-0.40516631916490964,"56":0.3798544705393927,"57":-0.09080524059201317,"58":0.18255752881452503,"59":0.5809669993763386,"60":0.15353954647598747,"61":-0.37656748792644296,"62":-0.08073262855732215,"63":-0.4067770069963371,"64":-0.15832989909225628,"65":0.3238864150448111,"66":0.029665775126301985,"67":-0.30450537363275554,"68":-0.05407010902386696,"69":-0.15078881836252034,"70":-0.19602250121340647,"71":-0.1130059736536857,"72":-0.17230923364895187,"73":0.020686580155581,"74":0.06348927678621283,"75":0.11389574435745073,"76":-0.29240945102209726,"77":-0.058751873187676835,"78":-0.23969050456148056,"79":-0.1735857151663868,"80":-0.05391434280365654,"81":-0.0010817956046048475,"82":-0.1469523888629185,"83":-0.27742364570129147,"84":-0.22552836948512225,"85":-0.8546436097409449,"86":0.725756975152912,"87":-0.27451890383792305,"88":0.004838202391705529,"89":-1.0929214934352485,"90":-0.047388275534784786,"91":-0.020410060584917594,"92":0.23958904729745228,"93":-0.14358518630651407,"94":-0.4819025256684924,"95":-0.2817348999644123,"96":-0.2155319386362833,"97":-0.06854097825304699,"98":0.1119648878400549,"99":0.09165168079994886}},"25":{"bias":-0.2614806510698765,"weights":{"0":0.042973153786228256,"1":-0.14692137113457107,"2":-0.18817280344379747,"3":-0.10901536565336233,"4":-0.2564960845897926,"5":-0.2987786974124448,"6":-0.05754043649893318,"7":0.12948973997589233,"8":-0.24972129144206584,"9":-0.10348074407012194,"10":-0.11650976696393882,"11":0.0028046587259629306,"12":0.2665290497437458,"13":0.20156949824421772,"14":0.2077317100332097,"15":-0.3496122751301427,"16":0.018448428709759986,"17":0.01695367337811124,"18":-0.27365001637057723,"19":-0.15020214874351173,"20":0.11115996577239785,"21":-0.16225545463677982,"22":0.34630837804820813,"23":-0.018858334540449818,"24":-0.09660422384416867,"25":-0.11042690391493479,"26":-0.29883714281917223,"27":0.16567122233529677,"28":-0.07038904627246154,"29":-0.04169690555479704,"30":-0.13998680278060782,"31":0.12911436467043635,"32":0.17604444167229213,"33":-0.19791402195214874,"34":0.21909466627658422,"35":0.34844314831755413,"36":0.21882903809178586,"37":-0.09332293259445898,"38":-0.12007094955789371,"39":-0.12717684979280963,"40":-0.05534544927263867,"41":0.017044361698651388,"42":0.20699314984542433,"43":-0.3457378542585977,"44":0.007256151364535443,"45":-0.2015911287280993,"46":0.05396856945008038,"47":-0.09871749801583017,"48":0.19370257970397758,"49":-0.2845725013567375,"50":0.10480999355528313,"51":-0.01586210069202258,"52":-0.06586430166353174,"53":0.030878133414083894,"54":-0.007258907609644608,"55":0.030655803774408994,"56":-0.2516558946523911,"57":0.021223698570816015,"58":0.30701279762678213,"59":-0.24510168380126787,"60":-0.046145640713150075,"61":-0.19486092558501533,"62":-0.3421666848511216,"63":-0.32707464407066167,"64":-0.11231393934426971,"65":-0.1582024213555491,"66":0.5100095296197216,"67":0.2143228524081694,"68":-0.10918072299796688,"69":-0.04488032746924974,"70":0.2284843388425419,"71":-0.2266365416536863,"72":-0.2435415768804881,"73":0.02528237775919179,"74":0.18068230706372423,"75":-0.07016941844671032,"76":0.10210349311652306,"77":0.24140869279360416,"78":0.011314971182784496,"79":0.2549834331282763,"80":0.13764375691537087,"81":-0.18521278343565492,"82":-0.06130939794574365,"83":-0.07975771523671185,"84":-0.033849849566551946,"85":-0.15728904236386362,"86":-0.05747584789798434,"87":-0.23072016583029653,"88":0.05846917482192605,"89":0.2576055900776502,"90":-0.048544266160240025,"91":0.051930792623401036,"92":-0.26771864206327484,"93":-0.09282825058571582,"94":0.08056211351487415,"95":0.02081374522668058,"96":-0.12168288456631565,"97":0.08107503325010702,"98":-0.031852398575625746,"99":-0.3715916264189248}},"26":{"bias":-0.05852735830851294,"weights":{"0":0.1548019343939369,"1":0.17862574422883218,"2":0.04653852447460321,"3":0.5827247455083432,"4":-0.40563408829812914,"5":0.10802067976602743,"6":0.11492323789884816,"7":0.06711443363073989,"8":-0.16217813538857648,"9":0.001712927176392396,"10":-0.1283065291334136,"11":0.05392024720430221,"12":0.1184798393573919,"13":0.0003845623701646628,"14":-0.19086430527575501,"15":-0.26530396777658816,"16":0.07632244778892172,"17":-0.19617087158376523,"18":-0.14922817769221455,"19":-0.2558610670508448,"20":0.021187196894997658,"21":0.0882138450186859,"22":0.23163755490327842,"23":0.06254326238139217,"24":0.10972880994007296,"25":0.10557664969670617,"26":0.22969162287952682,"27":0.14330845276056556,"28":-0.10076663628400302,"29":-0.29593856092412385,"30":-0.23901543261366245,"31":0.06742585676811301,"32":0.04079616091013316,"33":0.18102568118753828,"34":-0.1420478180291791,"35":0.15024566608232298,"36":-0.1562973423018953,"37":0.0682514585588463,"38":-0.03635516536966214,"39":0.07021229487007058,"40":-0.21091693929347802,"41":-0.024732864421169322,"42":0.02368303205629857,"43":0.015863045744932008,"44":-0.2086029758018973,"45":0.19818238991687817,"46":0.07296436431431229,"47":0.12038957833824669,"48":0.1297734380236479,"49":0.30247576944777876,"50":-0.15763266390387146,"51":0.09483709489355596,"52":-0.003625171262135263,"53":-0.08887633712209048,"54":0.35610397494518775,"55":-0.13399429205593383,"56":0.4026745141379243,"57":0.18273855763156713,"58":0.37745707274943907,"59":-0.22043871070343654,"60":0.13394359178158324,"61":-0.1386091134140347,"62":-0.2560329458262085,"63":-0.1630549986746989,"64":-0.03683905842358619,"65":-0.40118642991763626,"66":0.27464050485029967,"67":-0.2333649772217549,"68":-0.07015830989544085,"69":0.03781163831031888,"70":-0.054584535679550523,"71":-0.3592272505053992,"72":-0.17317963806651132,"73":0.17673370432919702,"74":-0.1004171008118648,"75":-0.0814829500105494,"76":0.1500797981426486,"77":0.10849604029384544,"78":-0.061550999380312284,"79":-0.09219669784994133,"80":0.32031959430009654,"81":-0.11931283030818696,"82":-0.1795652018569949,"83":0.09962568219601534,"84":0.1181753900832586,"85":-0.3287472228784692,"86":-0.011313637232303646,"87":0.004017565895812146,"88":0.15277343549905456,"89":-0.7695504126624708,"90":-0.06282837777995688,"91":0.11632878955017797,"92":0.17900385891307602,"93":-0.08017361547291704,"94":-0.036935009721013615,"95":0.04572869280949015,"96":0.09872216972803503,"97":0.108721211905788,"98":0.009229192894592413,"99":0.03238291158770389}},"27":{"bias":-0.0611527320852527,"weights":{"0":0.08344701346300167,"1":-0.12943222968948254,"2":0.1342663789593669,"3":0.7828389864408372,"4":-0.469200301386905,"5":0.3704009370908916,"6":0.06754345141463168,"7":-0.29867170087889783,"8":0.2684440035066749,"9":-0.15892272872347665,"10":0.06257764163477662,"11":-0.0737273956602928,"12":0.07457532423918586,"13":0.10174479012081156,"14":0.025444256407673543,"15":-0.46664417306648553,"16":-0.19070582595225913,"17":0.12022817625121023,"18":0.0562337159531312,"19":-0.35380812511908116,"20":0.00748594417249417,"21":0.1752350542569547,"22":0.6705248210361228,"23":-0.09174593213769154,"24":-0.21296664492653017,"25":0.09866500620604417,"26":0.46328678403698015,"27":-0.0060072149855878755,"28":-0.0033647276225925154,"29":-0.0195466961331709,"30":-0.243338614235369,"31":-0.000601755145402803,"32":0.13633903886158688,"33":0.3342530200250895,"34":-0.22731978151318621,"35":0.08386978776592803,"36":-0.3242705603211897,"37":-0.09374250304599714,"38":-0.17794144844618098,"39":-0.19728706805544793,"40":-0.008350010253840235,"41":-0.09916743869573577,"42":0.12699145534334033,"43":0.08634766617589013,"44":-0.04627669925285738,"45":0.1500653968774948,"46":0.05304335003851284,"47":-0.008054607288173688,"48":-0.15870476766300326,"49":0.7284018050512346,"50":-0.05557861568401705,